{"zero_const": [0.0], "pi_const": [3.1415927410125732], "ent_embeddings.weight": [[2.441539767630166e-39, 6.258106455975988e-39, 4.9873949955416e-39, 3.3518498747263894e-39, 3.079321145489106e-39, -3.046149608241609e-39, 8.489038070910455e-40, 3.265381351686762e-39, -2.5806760934514415e-39, -6.7411144184502515e-40, 1.038973128195135e-39, -5.2333046591505694e-39, 4.439164997343802e-39, -1.8564514159252323e-39, 3.842147391812071e-39, 4.1496118930634364e-39], [1.5164795928984597e-39, -2.6214706943448656e-39, -5.901139685173884e-39, 1.2229776295456268e-39, -3.287236002536372e-40, 6.940166062710663e-39, 4.0609181080624615e-39, 4.61105667476867e-39, 6.846951688863776e-39, 1.24878954725849e-39, -3.796818189088092e-40, -6.684657504621069e-39, -1.5868584069707093e-40, 4.626798861716895e-39, 3.418156515461311e-39, 3.029216317598708e-39], [-5.437730283021667e-39, 6.887390359947262e-39, -5.981862884509779e-39, -3.4661397774767215e-39, -2.4037229259734323e-39, 5.381392479561952e-39, 1.3209536155742894e-39, -1.4847177619060734e-39, -4.9426711537542094e-39, -2.356353432685396e-39, 4.614450619649265e-39, -1.0151342387200413e-39, 3.8472621312068566e-39, -7.551261112615001e-40, 3.0923434121180766e-40, -3.5395481988288414e-39], [-3.1529215447308384e-41, 7.302900577991928e-39, -3.828615052542086e-39, -4.78715785278037e-39, 1.7164953305023268e-39, -7.330563610976164e-39, -2.2390535408336944e-39, 2.2031522741776925e-39, 5.555083424215013e-39, -5.077459250440685e-39, -4.760393052111766e-39, -6.302676154932303e-39, -6.36560846896513e-39, 1.4117073093178218e-39, -5.7371513310878077e-39, -6.886095560166226e-39], [4.960927270147433e-39, 2.5919173097322552e-39, -4.594119180230376e-39, -1.0155490230654814e-39, -6.042889432631125e-39, -2.6331911547004784e-39, -6.07601192443237e-39, -5.528590475448488e-39, -2.2876533741734077e-39, 5.0421465291396995e-39, -2.5266812610240777e-40, 4.458669670668739e-39, 2.9513055242807124e-39, -4.4606216794295436e-39, 3.77530965895917e-39, 6.918314214457982e-39], [-4.034660577437943e-39, -2.1934524862076362e-41, 1.8653917001276246e-39, 5.020486658776631e-39, 5.467856798706186e-39, -2.0586419687457315e-39, 2.8402638313706852e-39, -2.1015245043509995e-39, -2.041111724957028e-39, 6.649710522219272e-39, 6.541966084595801e-39, 3.725873250436255e-39, -1.6916475061329192e-41, 8.42145344597607e-40, -7.527551142598625e-40, -5.127390317321507e-39], [5.668252288193885e-40, -1.987918435251258e-39, -4.170558502508164e-40, -6.713814321768275e-39, 3.7460001002793524e-39, 6.457926011794849e-39, 5.655144542358591e-39, 1.3361100597644266e-40, 2.3344175065248555e-39, 3.289486487870078e-39, -6.108870972122323e-39, -2.3884739960846496e-39, 6.415611002067633e-39, -2.965057867409596e-39, -4.289374599298265e-39, -6.757750633818716e-39], [-4.626428918922313e-40, 6.835825379057037e-39, 4.06060982240031e-39, 4.475971502807758e-39, 3.526008853066535e-39, 1.9708253965834238e-39, -2.1720224287927167e-39, 5.2743585002598936e-39, -4.5319113375036044e-39, 9.552595579363705e-40, -5.8638819616044155e-39, 2.798541570893878e-39, -1.4045775027313371e-39, -3.5597381071028334e-39, 3.0917688797477034e-39, -2.898227141049017e-39], [3.210695679116486e-39, 4.9695957024477464e-39, 3.823524135221194e-39, 2.927592751667408e-40, -4.623088223383363e-39, -6.789831960860968e-39, -1.3436518480994227e-39, 1.4367793414415214e-39, 2.952943642185508e-39, -1.3838508971455088e-39, -7.847439556034695e-40, 3.763607415483594e-39, 6.965194654581969e-39, 5.2434514613307454e-39, -1.0593283896879174e-39, 5.1755137091833496e-39], [-5.0078665648069215e-39, 6.479463969191522e-39, -6.84661257463541e-39, -1.3635530888897638e-39, 3.86242698318778e-39, -3.20488729698186e-39, -3.6195287099786446e-39, -6.866561459573538e-39, -3.131181800355303e-39, -1.7521555738224648e-40, -4.044890056227514e-39, 3.065037710242243e-39, -1.0145569037527395e-39, 8.780872489090742e-40, -2.3546550589466345e-39, -2.923098787492318e-39], [2.6018244898750317e-39, -3.5896137903622385e-39, -7.143362747828548e-39, 6.363610217355003e-39, 1.931532987643756e-39, 2.9521687241347365e-39, -5.421112284533239e-39, -3.10827617565745e-39, 3.735399277396735e-40, -5.939445579994667e-40, 7.408398734177086e-40, -2.4332707053921854e-40, -9.904657805540672e-40, -6.947825560116663e-39, -6.719497988339577e-39, -2.1659309843682968e-39], [-3.6592863500084684e-39, -6.931217370717485e-39, -6.844367694495561e-39, -5.144564631300272e-39, -1.9892482674939022e-39, 2.441025491093759e-39, 2.1220899606134305e-39, 4.8647799786147144e-39, 6.898875402160868e-39, 4.95502920491109e-39, -6.915231357836467e-39, -1.6637504563051407e-39, -2.2904055243573416e-39, -6.568194187952569e-40, -4.473182918863751e-40, -1.0189611848261124e-39], [2.6957507233417955e-39, -5.780479479604731e-39, -2.3307769331145396e-39, -2.1620676045021532e-39, -3.342791881452994e-39, 4.480632221500102e-39, -2.6091532808434504e-39, -2.6583052257781077e-39, -6.453427843724367e-39, 2.2728864909563527e-39, 4.509143040055255e-39, -3.4832075927721978e-40, 1.0448753973268712e-39, -2.850047697248601e-39, -2.3401992639886597e-39, 6.111370888582679e-39], [5.479993444705703e-39, -5.557650603001656e-39, -2.870629969092604e-39, 3.717555142752023e-39, -1.9114355650684094e-39, 1.4021042109418038e-39, 7.056378546954049e-41, -5.1782700632626765e-39, 5.7885958003101e-40, 4.4712084893275176e-39, -3.771322964828166e-39, -6.2627952006376184e-40, -3.248687683081261e-39, -1.4201459286699859e-39, -4.163944373756551e-39, 3.6643170114953945e-39], [4.501988010096412e-39, -4.4529986157836166e-39, -4.751382702986157e-39, -5.5591457884630905e-39, -3.497052421599727e-39, -3.7719367335555404e-39, -6.102094292748848e-41, -5.187074421514029e-40, -3.70398777102043e-39, -4.6632340230878046e-39, -5.5288819455290674e-39, 2.7264069298458295e-39, -1.1910546492298431e-39, -1.0034053705736426e-39, -3.4476454403445626e-39, -3.102242184470067e-39], [4.365310963080027e-39, -6.622096534681287e-39, -3.591575608212293e-39, -4.523189655861647e-39, 6.152042175211242e-39, 6.02953505826611e-39, -2.296529198646441e-39, 4.1564502295693416e-39, -1.0935733215590872e-41, -6.043116442982346e-39, -2.6049633984351192e-39, -5.433960790152633e-39, -5.3072918167684554e-39, 1.57828526296597e-39, 2.3658458284827325e-39, -3.559732501908976e-40], [2.7203575243753393e-39, 7.12007036475454e-39, 6.984004283868601e-39, 3.674120495551811e-39, -6.597363616785954e-39, 3.3884125542575526e-39, -6.797572733577898e-39, -4.8289431716880715e-39, 6.015454811296574e-39, 7.188820870011245e-39, 2.6193771544391643e-40, -3.847396655859432e-39, -2.595911010355581e-39, 6.821948320364829e-39, -4.259243879718353e-39, -1.816850721323413e-39], [7.331722484806161e-39, 5.831503559287726e-40, -2.3341036156688467e-39, -6.232000265585616e-39, 9.871376967012958e-40, 6.821071107526161e-39, -5.0092776723604966e-39, -4.6075464221155364e-39, 1.794219751124567e-39, 4.06864206519782e-40, -2.3849875655054095e-39, 6.240948957578795e-39, 4.371705087972741e-39, -5.703808835427663e-39, 2.948690701346282e-39, -1.582546611595982e-39], [1.7963132910302684e-39, 6.246596190390024e-39, 2.622866387615333e-40, 4.966105067973113e-39, 5.450824015872318e-39, 7.063825046993471e-39, -2.8902733709655093e-39, 4.982302676922244e-39, -2.3560143184570295e-39, -2.161906455178756e-39, -1.8129523089956613e-39, 3.867704273204427e-39, 4.5253798853613864e-39, -1.6727846275046428e-39, -1.0423502574941579e-39, 1.677225342338088e-39], [2.450568333635811e-39, -6.049978601562144e-39, 2.1853487771884457e-39, 1.9095213913661417e-40, -5.903165962753297e-39, 3.233477989549479e-39, -2.0052552998518846e-39, 5.961757054143647e-39, -6.728857260782802e-39, 1.115108476358831e-39, -4.562246646659308e-39, 9.521192480778186e-40, 3.8309888521406525e-39, 3.273940482706858e-39, -5.928706028564082e-39, 5.0596137144975083e-39], [6.209893381012428e-39, -3.662254300155908e-39, -5.0172846917856486e-39, 2.6377117435463902e-39, 3.9648899268992104e-39, 2.1973438920430662e-39, 5.8560823343519835e-40, -1.527055192408719e-39, -6.662332017487446e-39, 1.2379575101292591e-39, -3.2812972996445636e-39, -6.947790527655054e-39, -2.27703293311229e-39, -6.776885364349071e-39, -1.3176591628846617e-39, -2.771056502814611e-39], [-3.792003327564672e-39, 3.2070593096015634e-39, 3.212923743674763e-39, 5.619887872996178e-39, 7.378651970376399e-39, 1.6160194280133088e-39, 3.5660369436999734e-39, -4.057852067022519e-40, 2.0610157683442977e-39, -1.1195856249523488e-39, -2.0907933607112e-39, -5.401791181307128e-39, -3.3306986757058707e-39, -7.008804464090221e-39, -4.3835530664886074e-39, -7.149822733749085e-39], [-2.8866496131367653e-39, 7.257090729894685e-39, 4.719948775834423e-39, -5.2772914179457254e-39, -5.217876363058353e-39, -2.7394754393241228e-39, 5.67021410604394e-41, -1.499246424384193e-39, -1.7218945334853703e-39, 7.091880443547718e-39, 5.175799574070072e-39, -9.298568193750902e-40, 2.9376961135951898e-39, 5.1705180801580317e-39, -3.524786920805644e-39, -6.050358353445976e-39], [-4.3365170822350805e-39, 3.530837727574598e-39, -2.998703043538035e-39, -2.7007729770379356e-39, 2.914465387653613e-39, -3.5685606822342224e-39, 6.283818881497884e-39, 6.908751753737429e-40, -5.6177102551826175e-39, 4.257738885167668e-39, -4.099135721079992e-39, 1.067385855857785e-39, 6.149833728831466e-39, -7.047690496475235e-39, 2.6838228708134626e-40, 6.51645264345584e-39], [-5.2827718962397e-39, 6.948590669078184e-40, 7.282363147698783e-39, 6.306376984176585e-39, -5.4726870745127136e-40, -5.2231410413888215e-39, 7.041003500203477e-39, -1.1634364577964653e-39, 2.6875755481009245e-39, 5.142849441979938e-40, -4.1329896906796155e-41, -1.684641013811295e-40, -5.874729413016754e-39, -4.738231516898469e-39, -3.66947378984411e-39, 4.7568449644000954e-39], [-7.75540227289784e-40, 3.3983169318034004e-39, 1.510661401674583e-39, 9.460614348165424e-40, -5.276332929796127e-39, 6.808634583655278e-39, 6.247431364274761e-39, -7.376266960390118e-39, -3.281756925540862e-39, 5.49503638372023e-39, 4.9510144848107993e-39, 7.050832207632251e-39, 6.035000122276976e-40, -3.865734047563586e-40, -6.179112458945069e-39, -1.8455717346482144e-39], [1.3485591953214883e-39, 6.708632320047202e-39, -4.464524295652688e-39, 1.9326428160275012e-40, -2.4476059886822282e-39, 3.361070418621647e-39, 2.7153534875592354e-39, 2.439231829059423e-39, -4.251564764133853e-39, -6.589367807748517e-40, 4.4567512930710785e-39, -1.2009239943140828e-39, -3.9760078289151635e-39, 7.291352477347427e-39, -7.993552946909843e-40, 4.8776537076064665e-39], [1.0801446783754625e-39, -2.521294669727213e-39, 1.491179149125075e-39, 5.3411668058450436e-39, -5.743364688478624e-39, 2.260082826887817e-39, 1.3810945430661819e-39, -5.927952129990275e-39, 7.255966888526297e-39, 4.982630580762896e-39, -6.1857237850997535e-40, 3.3513243878022676e-39, -7.115312956468158e-39, -1.067174259789672e-39, -2.1049702972747742e-39, 5.472926696550113e-39], [-2.452203648943678e-39, -2.29280594862673e-39, -8.89079034063238e-40, -2.902321735161774e-39, 1.420664409101786e-40, -2.0495055027583337e-39, 8.285625585829065e-40, -5.907142847795051e-39, -9.940951435766685e-41, -4.783309887197334e-39, 1.0013678826065143e-40, -1.82293796185244e-39, -2.9107883804832246e-39, -1.2597056622955803e-39, -2.0370815905736298e-39, -6.524672660247569e-39], [5.998584579084567e-39, 3.74167709451691e-39, 4.716545021864578e-39, 3.920468765580114e-40, 6.074850248005445e-39, -1.6785958122361978e-39, -8.43612504089755e-40, 4.728698483445667e-39, 6.90337637282828e-39, -1.955360666731135e-39, -2.88512500040758e-39, -5.257195396668843e-39, -5.913863475229953e-39, 9.379002725603147e-40, 1.1174990915389692e-39, 5.154768886717485e-39], [3.076539568037421e-39, 5.845017681677675e-39, 2.9297395409147534e-39, -5.5172595760659574e-39, -2.8850731523644e-39, 2.419490336294015e-39, -5.510216649984261e-39, 4.8188482175510756e-39, 5.492435573770443e-39, -1.2255083745721974e-39, -2.93560958018181e-39, -1.6170395732953373e-39, -3.91491401846753e-39, -4.942323631735057e-40, -5.434905265317588e-39, 2.6671137879248535e-39], [2.737716809751395e-40, -6.466543997350447e-40, 8.487945058108282e-40, 3.1276281074497755e-39, -4.956742992932959e-39, 2.3643268209474044e-39, 5.2931246892941315e-40, -2.2614743162628914e-39, -7.175572994329518e-39, 5.7825225727657166e-39, 3.046619043227158e-39, -1.1590784195724151e-39, -3.242933951586743e-39, 4.531171451914441e-39, 4.376086948270685e-40, 3.822199908172407e-39], [-1.5057372388709457e-39, 3.4827185396081484e-39, 4.92855727562153e-39, 2.1469868304290896e-39, -3.925008972604526e-40, 1.4499319288276742e-39, -1.798325555625039e-39, 2.3400787523207277e-39, -4.878833600913428e-39, -7.315105887616197e-39, 3.888199664543642e-39, 5.984386623044028e-39, -2.1313735629395824e-39, 1.7977762466270235e-39, -4.386961024353845e-40, 6.345234990592312e-39], [5.4618242088172676e-39, 6.204529210490993e-41, -3.946126540461901e-39, -7.368830269439946e-39, 3.7899518266129e-39, 4.595676022824241e-39, -4.393880636170681e-39, 6.682946519196128e-39, -1.8114473144449764e-39, -2.8359730554729226e-39, 1.5443920570093458e-39, 8.35173884737591e-40, -7.079303789830403e-39, 1.7651021703343618e-39, -2.8233781848755712e-39, -3.5875650920073956e-39], [-5.217314442374159e-41, -2.1691876019993876e-39, -5.362278768508561e-39, 7.163390105480678e-39, 4.9047029718633285e-39, 2.2370468814327812e-40, -8.031121758738392e-41, 1.9273935519801404e-39, -6.082232288315508e-39, -3.75931944218276e-39, -4.6480397438391306e-39, 6.033579205634151e-39, -3.473021554235021e-39, -5.98520358004873e-39, -6.9631361471378755e-40, -3.2223362654596325e-39], [4.3666982485597085e-40, 3.3523207110104026e-39, 5.210396231855787e-39, -6.90374911821979e-40, -5.626930799077875e-39, -9.233183607405506e-40, 9.294560480142933e-40, 6.956143667800895e-40, -2.8614374511666332e-39, -9.480064370850252e-40, -1.1775475333322162e-39, -4.862074071280103e-39, 3.2275476944484565e-39, -2.874016907480877e-39, -3.667520379784841e-39, -4.9521453326715095e-39], [5.569804064582745e-39, 7.215140057768193e-39, 1.4830390063458123e-39, 6.304315674135563e-39, 3.48180209041248e-39, -1.6434400363632168e-39, -6.369086491753584e-39, 1.7163594045512873e-39, 2.3206175192481847e-39, -5.932465712343865e-39, 6.536070821956387e-39, -7.002876971586127e-39, -2.8225374057969763e-40, -3.768021505646217e-39, 6.232997990092216e-39, -4.542491140909257e-39], [6.318034386101303e-40, 1.415085839915309e-39, -5.908465673545374e-39, -1.733799965238274e-39, -5.1031310383071155e-39, -4.683442148241833e-39, -4.99579017464137e-39, 2.6272076102578114e-39, -2.6582912127934645e-40, -1.7184823717247394e-39, -3.5368773239558383e-41, -1.7601780075307243e-39, 5.3596877676480247e-39, 5.823684313856794e-40, -4.322977736472774e-40, -5.0997525077096284e-39], [-5.149211337007973e-39, -8.199978223689532e-40, 4.27137071662862e-39, 1.8672021777435323e-40, -3.40097379369176e-39, 7.10525303479277e-39, 5.262014462087656e-39, -4.7562760372235795e-39, 6.156677670531229e-39, -3.103605647875855e-39, -3.2440227604935234e-39, 6.531611890242905e-39, -8.969431210450289e-41, -7.316784643176458e-39, 4.0440548823427766e-39, -2.0477230511117125e-39], [9.533061478771017e-40, 3.137578727844946e-39, -6.885162295388985e-39, 1.0941310383478885e-39, -8.16955603402904e-40, -3.866887316199726e-39, -3.144765987668468e-39, 6.70518092192957e-39, 3.348363444147149e-39, -1.7210187219451673e-39, -6.308169244912456e-40, -3.0360700683877206e-39, 4.708822466027684e-39, 2.6419576778932944e-39, -4.74488067811169e-39, -6.3345136560417626e-40], [5.0121545381077554e-39, 6.23707857122033e-39, -3.677550874192478e-39, 7.004125528517841e-39, 3.5383584964326296e-39, -3.737606322478047e-39, 2.019049681934698e-39, -3.801914711602841e-39, -3.160482951244335e-39, 6.47265926384876e-39, 1.1968195911120754e-39, -1.7278346376756432e-39, -3.117687296143855e-39, 4.6422804071507556e-39, 3.9861153947383384e-39, 2.817013487250608e-39], [5.2363721014889764e-39, 6.620919443971255e-39, -4.037929806755213e-39, 1.183936053031073e-39, -4.834429255175903e-39, -4.398370396450378e-39, 1.0634061682191026e-39, -1.5407921212544953e-39, -5.0157222439979264e-39, -1.4086777020379516e-39, -3.1576859595095428e-40, -8.162283294999194e-41, 5.799820201009342e-39, -4.9292635300475495e-40, 3.9773194442777715e-40, -2.7770932965989225e-40], [8.908026311743576e-40, -2.617093037942315e-39, 6.926102631322699e-39, 1.2735546950185024e-39, 7.771040763759706e-40, 3.3291320240227555e-39, 2.5854222913501097e-39, -4.7261845540006684e-39, 7.37217516887429e-40, 4.805500849678382e-39, 3.1700790431280315e-39, 4.697264556293933e-40, -9.185203147987024e-40, -4.107421598899545e-39, 6.315718039739774e-39, -2.209914940566524e-39], [-4.022118956182236e-40, 5.183414229925213e-39, 5.5047193561087146e-39, 1.0064798194043712e-39, -4.8369151586516154e-39, -3.798942557560008e-39, 5.661943642507495e-39, 4.311772953952033e-39, 1.767976233484692e-39, 7.248533000173054e-39, -5.823160228231136e-39, 5.0004326764536783e-39, 2.8433438853952712e-39, -4.650971260226498e-39, 2.4035715857392852e-39, 5.8140321700345244e-39], [1.549617498982813e-39, -2.8464996095369307e-39, 4.73336200473494e-39, 2.5115976843540853e-39, 4.5076926961446786e-39, 9.736277782067402e-40, -6.045137115367902e-39, 6.296457192347629e-39, 1.064762625132569e-40, -2.6514893100476318e-39, 2.2274760129214427e-39, -2.6082032004846382e-39, 2.7392750536437243e-39, 3.204754173627749e-39, -7.131675918636079e-39, -8.684631310560913e-40], [-2.9774145172680124e-39, 4.575914911880332e-39, 1.6343063729727477e-39, -2.966268589282773e-41, -4.4382401403573477e-39, 2.908322095186013e-39, -5.421904018165582e-41, 3.01413414222718e-39, -7.223203129131918e-39, -2.2970196531089547e-39, 1.3593758181676115e-39, 5.985486642338523e-39, 7.68257679170688e-40, -4.9209328106771385e-39, 5.58785979529557e-39, -2.6413158831966336e-39], [4.126983725461519e-39, 2.1175259315151246e-39, 3.660073879745419e-39, 2.2494343598574126e-40, 2.0757378100104942e-39, 1.567258445350198e-39, 7.026288465029602e-39, -3.330838805552303e-39, 6.305843089461677e-41, 6.692209102045315e-40, -6.990220443856346e-39, -4.220852505691246e-39, -6.060547194580082e-39, -1.013256498777846e-39, 3.961566046941832e-39, 5.3313689269824844e-39], [6.196611874167557e-39, -6.174922576536738e-39, -2.7808347634986697e-39, -3.02761323215552e-39, -3.7939959739809417e-39, -6.801370252416219e-40, 4.07990149835867e-39, 3.152459116237611e-39, -6.360661885386064e-40, 2.320575480294255e-39, -2.9101269676080633e-39, -2.059852690618908e-40, -1.0607829374938865e-42, 7.235488312768654e-39, -8.264858342587771e-41, -7.274716261978963e-39], [6.800013795502752e-39, 1.7061873789987535e-39, 6.367971058175982e-39, -2.10292440151686e-39, 6.138446777510363e-39, -4.360584383359859e-39, -7.036777184035073e-39, 7.069201829201085e-39, -6.749048570355259e-39, 6.974793549062594e-39, -5.829735120625748e-39, 1.7201274961218568e-39, 4.7088420842061844e-39, 6.45487398373955e-39, 5.024767625585143e-39, 2.5116971765450524e-39], [-2.3477214341451553e-39, 5.813240436402181e-39, -3.0199663464356998e-40, -6.207214098348639e-39, -8.589343014986826e-40, 6.81398474119207e-39, -3.659858079781913e-39, 7.52351540302137e-40, 1.1316802319979363e-39, 6.527248246824998e-41, 4.710899190351813e-39, 2.9556201222523685e-39, 5.6060150181993626e-39, -2.1546042888811593e-39, 3.502469841462807e-39, -7.029305460623293e-40], [3.308598797625004e-39, 7.006542768368801e-39, -2.2320106147519978e-39, 1.666939811609944e-39, 3.715338288581461e-39, 2.4034791000406397e-39, 1.1460267256756938e-39, -6.584351159246234e-39, -4.935440453678293e-39, 9.491667122134862e-40, -5.60033415422499e-39, 4.2824171524228923e-39, -2.000757131781402e-39, 3.5655591009236386e-39, 1.73462813263069e-39, 1.75188512321885e-39], [2.2745862659935787e-39, -6.158733375378393e-39, -1.4598559245520225e-39, 6.170019433210065e-39, 1.7013136629398318e-39, -2.7354621205222965e-39, -6.272828497642184e-39, 4.463076754339041e-39, 6.33434129633065e-39, -3.924711897330089e-39, -5.031704052983551e-39, -6.980178739060994e-39, -2.1006304759307603e-40, -6.095697365259206e-39, -5.13051801549388e-40, 7.745579170662924e-40], [-1.9891711960783643e-40, -3.525386676548375e-39, 6.383082660815261e-40, 6.238182794410217e-39, -1.6248868446955562e-39, 2.2928199616113733e-39, -2.328837536039914e-39, 5.473925822355177e-39, 1.9121137935251426e-39, -7.227573779042147e-39, 4.005639686241776e-39, 5.527973904124185e-39, -3.857219758094349e-39, -3.579224563547734e-39, -5.816249024205086e-39, 3.6665815098137434e-40], [2.6823739282013508e-39, 2.1943731392986976e-39, -6.080292891240883e-39, -6.569297009843993e-39, 1.1677048129187987e-39, 6.08370365170305e-39, 4.034100058052213e-40, -5.75196585845265e-40, -9.563049265907568e-40, -2.6875279039531375e-39, -2.3192358389623604e-39, 8.96054697818647e-40, -6.758291535025945e-39, 3.094633133808783e-39, -3.5879098114296195e-39, -3.6191615697809915e-40], [6.975845924209302e-40, -2.060693469697503e-39, -3.338061097837433e-39, -3.9757668055792996e-39, -6.318820514539789e-39, 4.39732783039292e-39, 6.917512671736388e-39, -5.493855089114804e-39, 4.610115002200644e-39, -1.9526365425164877e-39, -4.854535085542036e-39, -3.3066383810734135e-39, 1.8459136514735096e-39, -1.3576816483242428e-39, 5.0076633765295944e-39, 2.954637812028877e-41], [-4.008694516894004e-40, 5.3762174843332e-39, -6.825246976949849e-39, -6.5154212877860965e-40, 6.403250148313824e-39, -2.7723008558509316e-40, -5.394774879896254e-40, -3.136777185123352e-39, -6.993903056220591e-39, 2.5220569760918058e-40, -6.754198342211652e-39, 3.218541549218241e-39, 3.31214548403821e-39, -1.5524677400592497e-39, -3.631806887123059e-39, -6.012116918354552e-40], [-5.911778343115038e-39, 6.971817191124368e-39, -1.6076256502120031e-40, -7.32091006585543e-39, -1.1302901439213261e-39, 5.2770756179822194e-39, -2.1356180959880223e-39, 2.938046438211271e-40, 5.320853583306191e-39, -6.786732288657882e-39, 1.608225405954734e-39, 7.148484493715655e-39, -4.9525769325985215e-39, 1.144521731125009e-39, -5.210417251332752e-39, 9.549386605880401e-40], [4.4777413427682e-39, 1.7460851488750097e-39, -1.2030693822629641e-39, 4.98077526159613e-40, -4.5187026981788787e-39, 6.03982899678504e-39, -5.0797433669375343e-39, 4.644124515929807e-39, 5.978491360404614e-39, -8.169205709412959e-40, -1.1026817615771986e-40, -2.3045936713086304e-39, -4.7040412356674076e-39, -1.764111452320084e-39, 3.555500580546715e-39, 4.5958161526706734e-39], [4.812650274443367e-39, -6.163908370607145e-39, 1.1275744274974646e-39, -6.650464420793079e-40, 1.8488255496823766e-39, -6.783555545039257e-39, 5.457447953713181e-39, -1.510837965281088e-40, -4.135929614857769e-39, -3.877894515636997e-39, -4.7524841235791165e-39, 3.286498919544137e-39, -2.0336231859636762e-39, 1.2168063111087403e-39, -1.2643733874802462e-39, 2.1863451003965807e-39], [-5.42643301480228e-39, -1.2269671262735596e-39, 1.2239333150982963e-39, -1.5596227700180922e-39, 5.487176500633832e-40, -3.330561348456367e-39, -6.938080930595748e-39, -3.8513903564827575e-39, -4.161056297621577e-39, 6.526352817106294e-39, -7.65682092593259e-40, -1.5100294160671726e-39, -2.6342084973855782e-39, -3.229956526508631e-39, 4.268732071620296e-39, 4.071887472441196e-39], [3.9351697877693454e-39, -1.3549967604665965e-39, -3.398633625256338e-39, -6.314472285404989e-39, -6.978864321101457e-39, -6.216008647510741e-39, 1.4254498433574553e-39, -5.989034730050194e-39, -4.354776001225233e-39, 4.173899198047114e-39, -2.9113404920781686e-39, -2.3076947448101812e-39, 5.412520923648463e-39, -5.326587696622208e-39, 6.401170621392765e-39, -4.597625228988117e-39], [4.882258374360238e-39, -8.475417449837218e-40, 6.007694420401143e-39, 2.540716666442755e-39, 3.015214543343174e-39, -5.28825097323521e-39, 5.514109457118155e-41, -3.556461871293242e-39, -4.416618105052816e-39, -3.9934147584390064e-39, -3.522640131558298e-39, 2.1308550825077823e-39, 2.4888237817118784e-39, 4.691718216972135e-39, -9.308475373893679e-40, -1.4909086985214605e-39], [-4.2223617041373237e-39, 3.026395503790022e-39, 4.280012524258111e-39, -1.6959579002091823e-39, -5.939950047441824e-39, -3.984641228753869e-39, -3.653745615880528e-41, 3.247541420937443e-39, 9.618905022695555e-40, -7.986168104002851e-40, 1.2423155483533093e-39, 2.6556805937544273e-39, 4.820368626384868e-39, 1.2006157086519314e-39, 3.4467177807611796e-40, -3.1827411760516705e-40], [6.897230277763751e-39, -7.250040797320667e-39, 5.555559865692883e-40, 4.187396504855491e-39, -4.90230254759394e-39, 3.215268116005578e-39, 1.3495737354096594e-39, -5.872286949793436e-39, -3.2291171487285003e-39, 4.695952940931325e-39, -3.7912129952307926e-41, -4.3216983509748456e-39, -3.214797279721565e-39, -6.2164962993763265e-40, 4.4052619822979274e-40, 1.731091255306734e-39], [-2.5865643495985344e-39, -5.2164722619971e-39, 5.8532348958724755e-39, 5.73164703071994e-40, 1.2930845917157974e-39, -4.814567250742563e-39, 4.863273582765565e-39, 3.999251166542919e-39, 1.3994221256810861e-39, -5.534338601749148e-39, 4.434679440959498e-39, -5.987596997825796e-39, 3.8139868978729995e-39, -6.726466645602664e-39, -3.716425696189777e-40, -2.9476733586611825e-39], [1.4993893568275543e-41, -2.9056526216114742e-39, -5.855877744776192e-39, 1.1663035144544739e-39, -2.181380299937478e-39, -6.862769545929075e-39, -6.188181662606179e-39, -2.22845692184647e-39, 1.965433200092702e-39, -8.493900576581662e-40, -1.6827520634813852e-39, 3.0025832389857504e-39, 6.514912616443547e-39, 1.9461779578944146e-39, 4.249438994363472e-39, 3.7027560296702885e-39], [2.264436661216474e-39, 3.2164732326848975e-39, -1.8451583516012386e-39, 5.7907313791697314e-39, -1.4117661638533235e-39, 3.621179439569619e-39, -4.9543761998267146e-39, 1.603539463890032e-39, -6.476522643714904e-39, -6.137028663464466e-40, -5.766578598838629e-39, -3.0600771136785333e-39, -6.635483138910982e-39, -1.531170805998441e-39, 7.0678832073461556e-40, -5.642255399083731e-39], [-5.971207410987053e-39, 5.5305775166709004e-39, -3.685684010479419e-39, -1.3135155233256532e-39, 5.217569478694666e-39, 7.260881242240684e-39, -4.455022090766102e-39, -6.028861033704769e-39, 2.0616407474593866e-39, 5.758403423597758e-39, -2.6969502348272575e-39, 4.732812695736925e-39, -1.932076691447914e-39, 3.378418493609988e-39, 1.3967022053618317e-40, 3.669168306778887e-39], [5.7763568595226874e-39, -3.424127448217799e-39, 3.1568563908186625e-39, 5.4505675782533463e-39, -4.21622681946051e-40, -2.8761370720574005e-40, 6.11377551674746e-39, 3.952705636751906e-39, -7.361721482330426e-41, 5.7752708532128357e-39, -2.37272059874871e-40, -1.517201261607587e-39, -2.963129680722685e-39, 6.984695124011513e-39, 1.2598387856496911e-39, -3.029273770835745e-39], [-4.2288833471902914e-39, 1.5417646223887367e-40, -3.5492171582326826e-39, -1.6273335118142674e-39, 5.07548762350138e-39, -5.5026832694400506e-39, 4.043138433147108e-40, -4.087789407414354e-39, 6.892400001957223e-39, -8.91011424645542e-40, 5.730021524501323e-39, -6.743261207697597e-39, -6.881105536334765e-39, -3.697801038300436e-39, -4.7252667035065356e-39, -3.863096803853727e-39], [-6.128505966204443e-39, -2.4494697156397802e-40, 4.685577727101464e-39, -3.383974642021036e-39, -2.176039951489936e-39, -5.520973016996418e-39, 4.9867700164265114e-39, -5.2774553698660514e-39, -1.7458175008683236e-39, -6.299596100907717e-39, -6.21779670435122e-39, 1.832032388885908e-39, 5.122085001335573e-39, 2.9210851215990834e-39, -3.5366839447677615e-39, 7.09568496887836e-39], [4.43136537009137e-39, 4.904012131720416e-39, 1.3763329308844061e-39, -9.71021363063096e-40, -3.7421142996377796e-39, -8.864544020395577e-40, -3.1879876375021026e-39, 3.985410541610783e-39, -1.661029134687422e-39, 7.256730596189354e-39, -3.9486516802946144e-39, 1.2604287323031719e-39, 4.2983288964853006e-39, -5.0618627985327497e-39, -2.094265778305797e-39, -1.759805262139214e-39], [1.783757656789918e-39, 2.8910496903147452e-39, -7.072462650727569e-39, 1.9642140704287393e-40, -2.0376981618979327e-39, 2.395118953402478e-39, -1.1111301900186129e-39, -2.4027546287345838e-39, 1.226663044506801e-39, 6.929398485310791e-39, -3.586899475236841e-39, -1.2864760681580416e-39, -6.67381005320873e-39, 6.541636779456685e-39, 1.6225578866478484e-39, -4.285762051857236e-39], [-2.962200619840838e-39, -2.453071052693095e-39, 3.843733661673687e-40, 2.4706237172572277e-39, 3.8528224835132975e-39, -4.071041088168744e-39, -2.4987842111962992e-39, 2.1519011841434767e-39, -5.820427696225703e-39, -1.2235661749006432e-39, 4.66265248422511e-39, -3.467751270710695e-40, -1.0224658322853887e-39, 1.4961215288087488e-39, 3.4569458582522864e-39, 6.037261817998396e-39], [2.9053681580232162e-39, -6.141898175627995e-39, 6.077479083924519e-39, -2.3426487337042994e-39, 4.010126643924544e-39, -1.2310435035062804e-39, 3.159106876152368e-39, -2.1235206863455062e-39, -5.796260902909957e-39, -1.4211296401919419e-39, -1.4985850115090318e-39, -3.324842649423457e-39, 1.2118751418127813e-39, -4.410152513938421e-40, -9.253376318276427e-40, -5.531852698273436e-39], [3.991906961291393e-40, 4.262769546654594e-39, -5.363391399489235e-39, 7.202002884665148e-39, 3.9370769549792914e-39, -5.977471215122585e-39, 4.3495631709379446e-39, -5.741330003108424e-39, -2.616011235527856e-39, -2.1826849088077643e-39, 2.2955791182876288e-39, 2.2128884959078214e-39, -6.1508314533380656e-40, -7.060564225466987e-39, -6.271060058980206e-39, -3.92493890768131e-40], [6.358921472693372e-39, -2.8340742960537625e-39, -2.8790573780570535e-39, 9.04121973077765e-40, -2.6166992730738396e-39, -4.0348483514321626e-39, 6.988471623372868e-40, -1.7713337446052142e-39, -3.4684995640906445e-39, -1.9066809593789553e-39, -4.0243470207405124e-39, 2.512544962115969e-39, 2.298017377615554e-39, 8.624725801211027e-40, 2.8912234513243215e-39, 3.168083594114833e-40], [4.782763380796247e-39, -2.81969697380979e-39, 2.6687491032327206e-39, 3.082542730658589e-39, -8.099533149766729e-40, -4.124155905160512e-39, 3.93400811134242e-39, 2.9835157707816826e-39, -3.3186096738541405e-39, 4.734136922785712e-39, -1.5785150759141194e-39, 3.7716873024288906e-39, 6.397234374006477e-39, 6.402025413456004e-39, 1.4808740002184305e-39, 5.571086252677602e-39], [-5.648230535735612e-39, -6.971768145678116e-39, -6.815464512370398e-39, 5.24612934269607e-39, -3.626488959450946e-39, -3.10588836307424e-39, -4.3940459893894716e-39, -1.807731070917587e-39, 2.0561266380022684e-39, -4.6952186605360186e-40, 4.758986148453584e-39, 1.376638413949629e-39, -7.815952379541316e-40, -5.772766732857087e-39, 4.637562235221374e-39, -1.87808185902055e-39], [3.411278942598405e-39, 1.180885426274238e-39, 2.971024596270691e-39, -7.000447120048988e-39, 2.1071493163867993e-39, 3.080834547830577e-39, -6.706510754172214e-39, 6.399417597013895e-39, -2.3261610559730536e-39, 5.916800596811178e-40, -5.20732878951738e-39, -1.1573211912981518e-39, -6.20681612958477e-39, 2.177928901819846e-39, 5.036415218420611e-39, -1.3487021277648494e-39], [5.0796536838358175e-39, -6.727834312903845e-39, -7.22184947481538e-39, 5.5205946664110504e-39, 5.695751369257795e-39, -2.6979759853031433e-39, -5.645241566111207e-39, -7.813107743658737e-40, -9.198067067889526e-40, -3.804351569632302e-39, -4.362340210335658e-39, 3.971986102322551e-39, -6.845570008577952e-39, -2.1359502037240673e-39, -5.225167318968235e-39, -1.8956989833140417e-39], [-2.5288756944192103e-39, -6.064504461443335e-39, 4.9754461235363025e-39, -2.4078231252800467e-40, -3.0511956840116426e-39, 1.697897297283808e-39, 4.02707114495516e-39, -2.2590752932919673e-39, -2.6784390821135267e-39, 1.550657262443342e-39, -7.118216446886239e-39, -5.7181903615670286e-39, -1.115876387917281e-39, -6.73041830727206e-39, 2.5589671776421214e-40, -5.25498134509521e-40], [-3.972619489228426e-39, 7.211530312924093e-39, 3.482582613657109e-39, -2.1557491497265126e-39, -3.205038637216007e-39, 3.386187292296205e-39, 3.950647129307813e-39, -5.2470668113687034e-39, -3.5922846652352416e-40, 3.552053386324476e-39, 9.757661596632999e-41, -3.5881003880207677e-39, -2.0270412870767425e-39, 4.2907016289439807e-39, 5.925156539553947e-39, -1.384529125602242e-39], [-2.855081161332456e-39, -1.482489697347797e-39, 5.6262217420549265e-39, -5.241308875978793e-39, -4.879674379992023e-39, 5.334350890114568e-40, -2.8200150685611916e-39, -7.308395069270546e-39, -2.893455719777991e-39, 2.6931751367643665e-39, 3.9195439085936593e-39, -6.300260316379807e-39, -4.580211292971952e-39, -1.547809823963834e-39, -3.0456297265113445e-39, -3.412315903462005e-39], [5.5182348797971274e-39, 2.4073999331438206e-39, 1.515069886643349e-39, -5.538466827025049e-39, -3.6300328432672235e-39, -1.86251623567883e-39, 9.325585228143085e-40, -3.084571810834931e-39, 5.5654053887032294e-39, 3.8373087082147574e-39, 5.8200465430434065e-39, -4.66752900288096e-40, 5.4277418275679594e-39, -1.3423878768846018e-40, -9.770945906074798e-40, -4.1639864127104804e-40], [5.473956650921392e-39, -3.3860093273912355e-39, -2.3567261780769065e-39, -2.186510453615371e-39, 3.3477258533458815e-39, 6.92722086749723e-39, 2.922999295301351e-39, 2.4827141204074222e-39, 2.4251123457328863e-39, -6.043598489654073e-39, -5.8214534467015887e-39, 3.123990336636388e-39, -4.7569360488002765e-39, 1.0077157646499057e-39, -1.83016025413757e-39, 3.634612286648637e-39], [-4.417285123121834e-40, -9.861778072532333e-40, -2.8182466298992137e-39, -2.200751849908304e-39, -6.417338803074145e-39, -1.9672268621270377e-40, -4.699021784568196e-39, 2.4257639495187973e-39, 2.965450230979607e-39, -2.2914060514608695e-39, -7.137513728038456e-40, -5.37707928288876e-39, -5.1844862232504214e-39, -3.1460145446001814e-39, -6.576124135962183e-39, -1.9295907879722018e-39], [4.7106063189727694e-39, 1.048860690159411e-39, 6.627837654489626e-39, -4.062448325985504e-39, -4.930547119440871e-39, -7.318127087105281e-39, -4.08578555061037e-39, 1.6003318917051925e-39, 5.0940492229598264e-39, -6.539972036881067e-40, -6.769162808512177e-39, -3.520759589019174e-39, -2.9118883997777196e-39, -1.9573855430120845e-39, -1.487881893838519e-39, -8.892303742973851e-40], [-1.2990036764291054e-41, -6.165320879459184e-40, -2.6457411837469714e-39, 4.702236363245357e-39, 1.3591530117117839e-39, 3.36962534574635e-39, 3.6376811302855083e-39, -5.571447787681398e-39, 6.657035109292298e-39, -5.5573605342195407e-39, 9.11292417319715e-41, 6.387496750977884e-39, 2.205781110096766e-39, 1.0540062581204117e-39, 2.4871366183608313e-40, 2.443864521782481e-39], [5.488787993867806e-39, 4.005854084906818e-39, 4.061719650784055e-39, 7.958184173670285e-40, 2.8017057028263236e-39, -1.667180834945808e-39, -3.734135306181914e-39, -1.3784657071471085e-39, -1.880682668970337e-40, 1.9292404633561206e-39, 5.424146095708502e-40, 5.169811825732012e-39, 2.8324810196998252e-39, -2.375873520293441e-39, -6.919037284465574e-39, 2.5123179517647483e-40], [5.346189059541184e-39, 4.190239739439606e-39, 3.351981596782036e-39, 2.1788117198523705e-39, 6.325182409567824e-39, 2.060396394423066e-39, -4.371770949000564e-40, -1.5747231622696564e-39, -3.940697910211107e-39, -5.731375178817861e-39, -5.823129399664921e-39, 6.30780770990866e-39, -6.746439352614686e-40, 8.653074069144318e-40, 1.4259094692537538e-39, -3.660415796570714e-39], [8.5628304480418e-40, -1.6682051841232293e-39, -2.7210833969798595e-39, 3.75047724887287e-39, 4.040742212773113e-39, -7.144394103498291e-40, -3.051019120405138e-39, 7.124649808135954e-40, 3.0622827574613806e-39, 3.892470822262904e-39, 5.7750802766216875e-39, -7.224366206857308e-40, -5.951858281791656e-39, 2.567537519049932e-39, -3.9801836983388515e-39, -4.164182594495486e-40], [5.08179626918777e-39, 6.607350670941197e-39, 9.084309658555638e-40, 1.2660703599205436e-39, 1.337518364721073e-39, -4.350385733136503e-39, -3.0398928105983987e-39, 2.6990129461667437e-39, -6.414192888021736e-39, 3.6506851800344426e-39, 5.0206155782353487e-39, 6.48863967153592e-39, 2.4992942838373134e-39, -3.278037879416544e-39, 2.8519226345938677e-39, 3.9445276589141065e-39], [5.9007108878438e-39, -5.260684629845012e-39, -6.72497146014123e-39, -6.148686065389184e-39, 3.5282243059386325e-39, -5.183862645433797e-39, 8.090144450055753e-40, 2.1592832244535398e-39, -5.87080437601818e-39, -3.1701435028573904e-39, 6.23564644418979e-39, -2.2082025538431192e-39, -1.1708325110911717e-39, -2.4746860815053053e-39, 3.7575229775514953e-39, -1.1233369009413464e-39], [1.768903893068075e-39, -6.172918719732753e-39, 6.625287291284555e-39, 5.5894614794402936e-39, 6.164973357440032e-39, -4.8232272752520906e-39, -2.207717704574463e-40, -1.7720259860465907e-40, 2.7374687799232096e-39, -3.5582499281337204e-39, 9.856649320152904e-40, -7.09717875304133e-39, -2.9355549295417014e-39, -5.632664912393892e-39, -3.785436842960846e-39, 5.524319317729226e-39], [4.556658268383581e-40, 1.9385324734730584e-39, 1.0058422286031034e-39, 6.913727764584247e-39, -1.6362990193890175e-39, -1.2845226580987728e-39, -2.9828473514142e-39, -6.545734176166371e-39, 3.331078427589703e-39, -5.293432974956283e-40, -6.227516110499777e-39, 6.148712690060006e-39, -1.7282312051410472e-39, -3.386658128580218e-41, -2.637537982536814e-39, -3.4644582193195317e-40], [7.240004697719173e-40, 4.38539437267073e-39, -2.290933813878392e-39, 2.2633464510112294e-39, 1.6203354272834292e-39, -5.0475947775689944e-39, 6.57201132496939e-39, 3.510771133565467e-39, -3.3937402910189155e-39, 6.557292085900122e-39, 3.616583180606634e-40, -1.1728559860736567e-39, -6.595362562578899e-39, -1.978777765368467e-39, -7.298246865791905e-39, -2.0132791348586085e-39], [-2.0538747513700984e-39, 1.2286486844307493e-39, -7.2586699932639794e-40, 4.413809902930309e-39, -4.709511904872132e-39, -9.748413026768455e-40, -2.8656665699319655e-39, 1.2371895985708091e-39, -1.4043448871862592e-39, -5.940855286249778e-39, -5.943164626118985e-39, -1.6611216203860674e-39, 3.025382365000315e-39, 5.613604450682146e-39, 3.0716182078307125e-40, 3.503450750387834e-39], [1.5532552697962002e-40, -2.448368295046821e-39, 2.059140830999031e-39, 1.9135361114664323e-39, -2.3646547247880564e-39, -4.2803726579634424e-39, 3.172564946603744e-39, -1.3076188593877744e-39, -6.13288922780085e-39, 3.7488993868020404e-39, 3.876633347019105e-39, -1.1310216217197037e-39, 4.573272062976616e-39, 6.254898883791148e-39, -1.2747415948177855e-39, 5.962648279966957e-39], [1.130406451693865e-39, -6.523966405821549e-39, -4.653347862421993e-39, 6.164065316035149e-39, 3.7559142869144504e-40, 5.735939207916167e-39, -6.369820772148891e-39, 5.491296318118947e-40, 6.436553407616967e-39, 2.2035754663139186e-39, -3.60871488972945e-39, -1.7286137596218078e-40, 4.271466004924194e-39, -3.547608467595638e-39, 7.081680392025898e-39, 3.5603855069933514e-39], [-5.4158616191874136e-39, -3.2350936866788457e-40, -4.7818329186159355e-39, 2.7366966644693666e-39, 4.186541712792253e-39, -4.418801328060234e-39, 2.4400529899595175e-39, -2.332357597782298e-39, 7.006921118954169e-39, -6.796297551975363e-41, -5.709737729230221e-39, 3.080359507651171e-39, 5.2640393383686056e-39, -5.5094123046657384e-39, 4.944761891062982e-41, 6.264899950931034e-39], [1.6349649832509803e-39, 7.2281609230987e-39, -1.3229350516028447e-39, 4.546702042794553e-39, 1.6700212669329943e-39, -2.702163065114546e-39, 6.939457005687715e-39, 4.123987749344793e-39, 3.10260932466772e-39, 4.100329627371597e-39, 6.580929188396353e-39, 2.201669700402437e-39, 2.9791184962006313e-39, 1.9579768909640296e-39, 3.8195052112255106e-39, 6.543672866125349e-39], [-4.975472748207125e-39, -9.757661596632999e-40, -1.8199111571694983e-39, -6.249819176857971e-40, -2.6017628327426014e-39, -6.909245010796872e-39, 8.595088338690557e-40, -5.381672739254817e-39, -6.085567378660602e-39, -3.3529989394671358e-40, 6.085043293034944e-39, 2.9421816699794935e-39, 2.2772725551496894e-39, 6.679294735398098e-39, 3.849691982743996e-39, 7.075172761957573e-39], [-1.2440027117043564e-40, 2.218478275482013e-39, -2.9901200904440455e-39, 3.075782866866686e-39, 2.2547452810372037e-40, -2.735654098411909e-39, -7.313684970973372e-40, -3.421029177313177e-39, -2.013419264705041e-39, 5.6206095417053056e-39, 2.44751910817744e-39, 1.2817817183025534e-40, -5.858000711949644e-39, 1.517325977170912e-41, 5.895988512019026e-39, 6.947284658909433e-39], [3.459971261636764e-39, 3.022219634366334e-39, 4.0211464550479945e-39, -4.073630687730816e-40, 5.45766795757208e-39, 8.674836234295283e-40, -6.363488304388607e-39, 6.706715343748006e-39, -6.127096259949332e-39, 1.1558442227167535e-39, 5.7911461635151715e-39, 2.8820785775461378e-39, -1.930036400883857e-39, 2.1044307973660092e-39, -3.866560813657538e-39, 1.9981310984592572e-39], [3.0780025236341764e-39, -5.163974016329635e-39, 2.3107551806562666e-39, 4.433820445000867e-39, 7.137789783835928e-39, -7.273128590818883e-39, -6.224674277214126e-39, 6.694367101680376e-39, 1.3761507620840439e-39, 5.09147784027779e-41, -2.6661244712090402e-39, 5.2324428605950096e-39, 6.5259310262685326e-40, -5.7453993738488235e-39, -1.748027348546564e-39, 9.78057282652471e-40], [-6.943396055670932e-39, 3.7608412523150165e-39, -8.669553339084778e-41, 3.201361630045619e-39, 3.92618326071763e-39, 2.7304020317676196e-39, -8.62650545026072e-40, 6.77822640697943e-39, 4.013977412104509e-39, -2.546277018749196e-39, -4.899942760980017e-39, 4.155037720717302e-39, 1.7531364827474921e-40, 7.354113832967607e-39, -6.8106762755178e-39, -3.389712959232446e-40], [-2.4692672603437613e-39, 6.733972000177588e-39, -1.8691275618335145e-39, -6.039742116280251e-39, 1.0350284730180607e-39, 3.252906992757343e-39, 2.2301468877944458e-39, -8.469868307918492e-40, 1.1194272782258801e-39, 9.833303687737252e-40, -1.1255593603057655e-39, -1.4203897546027784e-39, 1.193767563056776e-39, 3.410380710282773e-39, 1.8565775327870215e-39, 3.3983169318034004e-39], [-2.9014655418000716e-39, 3.58966283580849e-39, -8.929634334063464e-40, 3.4222483069771396e-39, -6.567670102326912e-39, -2.5425523674310205e-39, 6.906845987825948e-39, 6.864116193753291e-39, 3.360498688848202e-39, 2.0694796110688196e-39, -5.019407658959101e-39, 2.957347923258881e-39, 3.715397143116963e-39, 6.524781961527786e-40, -1.0903251117187823e-39, 7.684048155094421e-40], [4.150337765667957e-39, -1.8267635066600467e-39, 2.95731849599113e-39, -1.5319961707939284e-39, -3.838425543090824e-39, 7.000088387642121e-39, 6.00298886015794e-39, -4.347665812817249e-39, -1.4652887586982098e-39, -6.100576686511985e-39, -4.247963427080538e-39, -1.7666337895558688e-39, -1.2054193597876368e-39, 1.580390013259386e-39, -1.0860371384179484e-39, -3.701978309022588e-39], [-5.715324706207484e-39, 4.1353326617119666e-39, -4.3590191329752085e-39, 6.9518977334539905e-40, 7.073003551934798e-39, 5.883404851809389e-39, 6.27815062920969e-39, 2.3518945009719146e-39, -1.2049148923404799e-39, -5.099309697394902e-39, 2.17229568199326e-39, -3.817277146667234e-39, 6.528416929744245e-39, 3.1065329603678297e-39, -2.048376056196088e-39, 1.0386200009821252e-39], [6.206303254346828e-39, 4.363237041352826e-39, 4.085191400061496e-40, -2.9941964676767664e-39, 3.835166122862805e-39, 6.968079928120013e-39, 2.876605105744485e-39, 9.742975988726875e-40, -4.705698971750704e-39, 6.261475177484224e-39, -5.277327851705798e-39, -6.589087548055652e-39, 4.6040950239979044e-39, 5.150472505625865e-40, -4.0865394491841764e-39, 7.034298287051683e-39], [-3.783388144606003e-39, -6.68669919648359e-39, -3.327849835927898e-39, -7.029458202155905e-39, 2.8663868373426285e-39, -7.37501700215994e-39, -4.708948582889473e-39, 4.188569391670131e-39, -6.416825927836202e-40, 5.795088016095317e-39, 6.267911341330868e-39, -9.107304966355208e-40, 2.26838832288587e-39, -1.3758284634372492e-39, 6.560147932170416e-39, -4.7421257253308275e-39], [3.374556515042309e-39, -5.52323191012091e-40, 3.561938145691823e-39, 5.0160641608232217e-39, 2.119183667598421e-40, 2.661149861660687e-39, -6.279907857483953e-39, -6.803451180635741e-39, 4.271324473779297e-39, -1.2871907303748472e-39, -4.8183045137469175e-39, -8.880028368426366e-40, -5.943067936524947e-39, 1.1353796599437538e-39, -4.995149781243174e-39, -2.0741571453427358e-39], [-1.1136399155682186e-39, -1.0490512667505592e-39, 2.2627761225362492e-39, -3.433681501147566e-39, -1.4166230643306733e-39, -1.8468272980722494e-39, 3.320826528024702e-39, -7.780149203777817e-40, -6.311083945718252e-39, 3.668962315904631e-39, -5.834384628930378e-39, 3.942358448891332e-39, -4.13971452200991e-39, -6.830399551403172e-39, 3.792905763775697e-39, -6.397595909010273e-39], [-1.6918829242749257e-39, -4.219542291627102e-39, 8.705398553802207e-40, -9.477261773921603e-41, -8.111808524314215e-40, 4.539799246559289e-39, -2.6530503565368897e-39, 6.147626683750155e-39, 4.009012611645406e-39, -6.00291739393626e-39, -4.936387731440177e-39, 4.551095113480211e-39, -2.941070440297284e-39, -2.9526339552248923e-40, -3.63784368090737e-39, -2.6581146491869596e-39], [6.234458143092042e-39, 1.853309704768216e-39, 3.149278168723594e-40, -1.768287321743772e-39, -4.88607270878013e-39, -3.1335303765815116e-39, 7.318474609124434e-39, -6.25072301436746e-39, -3.814801052280772e-39, 1.5787869278161984e-39, 4.374587558913857e-39, -5.79031939742122e-39, 2.9697970588159427e-39, 8.321246592792202e-40, 4.2863043543629294e-39, -9.027122668226542e-40], [4.7977600769614514e-39, -2.5924161719855548e-39, -5.377317503627695e-39, 2.4369252917871445e-39, 5.990102519480009e-39, 2.740278383344181e-39, -1.9634461588702893e-39, 3.781304413789552e-39, 6.621575251652559e-39, 2.2161927576866993e-39, -3.722776380830097e-39, -5.653118264779177e-40, 5.174583247003038e-39, -7.107596005825121e-39, -5.271561508525101e-39, 3.6622374845743364e-39], [1.8172795186534963e-39, -4.954166005057066e-39, 6.934168505283353e-39, -6.700779443453126e-39, 3.558402669666332e-39, 2.7813868750936137e-39, -7.201735236658462e-40, 2.229521908679357e-40, -4.594157015288913e-40, -5.335401863962811e-39, -3.812773373402894e-39, -5.446311834817192e-39, -2.106543955450211e-40, -4.395920926734738e-39, -5.3575942277423234e-39, -1.6072613126112787e-39], [4.6519213405853104e-39, 1.511377465189853e-39, -4.7484203580325746e-39, 5.27397174188374e-39, 6.406005101094686e-39, -8.186918122002025e-40, -4.535451017424489e-39, 4.7290025652124256e-39, 4.5212558639808785e-39, -4.749561014982535e-41, -1.6232753514615827e-39, -2.159249593290396e-39, 3.315851918476349e-39, 2.242200857184568e-39, 4.446221936410142e-40, -1.725232426427392e-39], [4.973404431673781e-39, 5.876247019253618e-40, -3.281925081356581e-39, -1.0444241792213586e-39, -5.648311811046543e-39, 5.5154743218224075e-39, 2.2150773241090967e-39, 2.2974512530359668e-39, 3.592566326226571e-39, -4.822910581799153e-39, 4.3458273092320546e-39, -1.653518174918641e-39, 3.0945686740794244e-39, -1.0418570004347155e-39, -2.7608942863513276e-39, -4.534775591564684e-39], [-4.713543440553994e-39, -4.2680468366712413e-39, -3.8356397617437466e-39, 1.4604528776978249e-39, 3.312855942359623e-39, 1.4656657079851132e-39, 6.757038774198839e-39, -3.016369213277778e-39, 6.562429246070337e-39, -9.477626111522327e-40, 5.4062795402883605e-39, -5.0218613325701334e-39, -6.138584104759867e-39, 5.6570419004792865e-39, 4.7501537642329444e-39, 3.077083271841579e-39], [-5.424971460503989e-39, -7.020763145184769e-39, 6.273403030012557e-40, 5.257893243304077e-39, -5.57750419964421e-40, 2.963917210459636e-39, -6.7904681503637716e-40, 5.5284461417066624e-39, 4.051829286222851e-39, -2.0008243941076895e-39, -3.2638763571360774e-40, -5.852409531076988e-39, -3.829661822494937e-39, 3.3250850740577854e-40, 1.2223974919813963e-39, -4.853077735139138e-39], [-5.101847448913794e-40, -2.1068045969645754e-39, 7.532343583346616e-40, 7.088136174051042e-39, 2.158986149179103e-39, -1.2408035473103028e-39, -6.435865370070984e-39, 2.2615724071553942e-39, 7.252623390390418e-39, -4.488529939645037e-39, 3.8146987574928765e-40, 5.8122244950155454e-39, 1.3624684838783764e-39, 2.796022036255022e-39, -6.560547302232749e-39, 4.6046219122204905e-39], [1.5746334791679396e-39, 2.903770677773886e-40, 2.326158253376125e-39, 6.813600785412846e-39, -1.0721754940088473e-39, -2.987248829890644e-39, 4.510624212532046e-39, -3.5893685631309816e-39, -5.7595665013231474e-39, -6.207354228195071e-39, 6.773596516853301e-40, 2.4594749866750594e-39, -1.6537760138360767e-39, 5.5692925906432665e-39, -6.702952857371294e-39, 1.687034431588362e-39], [-6.487776471681896e-39, 2.813342085274077e-39, 6.126643640545355e-39, 1.1245378137252727e-39, 6.455333609635848e-40, 4.283912337884327e-39, 1.023787256737247e-39, 5.2369984819025296e-39, -6.758442875260092e-39, 5.275260936470919e-39, -1.6368973738332842e-39, 2.155211051116212e-39, -6.150383037829482e-39, 3.719331989204787e-39, 1.7973390415061542e-39, -4.456140326940633e-39], [-1.5087248071968862e-39, -4.961801680389172e-39, 4.9503250459663515e-39, -1.0747188507215968e-39, 2.7382240797954807e-39, 3.693332297497704e-39, -3.358421964524073e-39, 1.1436445182863416e-39, 1.4508904169772723e-39, 1.852412873751048e-39, 4.266687577160846e-39, 3.3661949671056826e-39, 1.9433263155195136e-39, -4.4010090414587016e-39, 1.706763312667591e-39, 5.861878104800431e-39], [3.459385518878676e-40, 3.2127149502035784e-39, 4.821800753415408e-39, -7.439745780824032e-40, -8.186385628585581e-40, 1.5412853783139376e-39, 1.6116908170570094e-39, -1.7647224184505297e-39, -5.346962576293491e-40, -1.0135759948277121e-39, 2.6138952748467256e-39, 2.1275213934611535e-39, 7.087937189669108e-39, -2.782320139870854e-40, -2.282163086790183e-39, -2.8654731907438887e-39], [-2.5048812608145765e-39, 6.085229665730699e-39, -3.036179369667938e-40, -7.272095833850676e-39, -5.6505062444416756e-39, -1.605209811659507e-39, -3.041607999918732e-39, -8.311381451603355e-40, 5.401044289225643e-39, 1.4437634129877163e-39, 6.8969416102801e-39, -5.721703416817091e-39, 4.071265295923036e-39, 2.668841588931366e-39, -5.675719807710272e-39, -5.5502797730793074e-39], [-2.324578990006831e-39, -6.696546120792401e-39, 9.251372461472442e-41, 3.670513553304639e-39, 4.486974498349636e-39, -3.9302091912056355e-39, -2.299916137034714e-39, -1.3522362024918766e-39, -4.71089498645642e-39, 2.297222841386282e-39, 9.19739444462665e-40, -5.738541419164418e-40, 6.239923207102909e-39, -9.996961335385748e-40, -6.842719767501515e-39, -4.201953193302897e-39], [5.0305886194059484e-39, -1.2920196048829105e-39, 4.5668597212038653e-39, 6.461233076170656e-40, -6.461011671013292e-39, -4.5226753793252395e-39, 7.1055921490211364e-40, -1.6827156297213128e-39, 3.745533467890732e-39, -4.366451620029987e-39, -3.249784899778827e-39, 6.066711506524647e-40, -3.7306684937811745e-39, -3.055955894894954e-39, 1.285680130630305e-39, -5.989177662493555e-40], [-2.8626285548613093e-39, 4.724993450305992e-39, -4.623459567476409e-39, 5.581430637941248e-39, 3.6257967180095696e-39, 1.646413591704514e-40, 6.191780197062565e-39, -9.902107442335601e-40, 6.126453063954207e-39, 5.217297626792587e-39, 2.5588158374079744e-39, -5.628418978046988e-39, 3.76721575902923e-39, -3.722546567881948e-39, 5.388429800449791e-39, -2.036585530917259e-39], [-3.0607329213598373e-39, -1.9160388305237165e-39, 4.190004321297599e-39, 3.14611123419422e-39, -2.2320638640936422e-39, 3.1450742733306194e-41, 4.002511988069403e-39, -3.2183201440608776e-40, -6.301968499207819e-39, -3.383875149830069e-39, -2.7749493099485055e-39, 3.110477615544904e-39, -6.382321755749132e-39, -9.56702895354625e-40, 6.742574571450078e-39, 1.0260839849202754e-39], [-3.870206992261711e-39, 1.0955197251260344e-39, -5.516376758033433e-39, -2.0953840144803282e-39, -6.151717073967519e-39, -4.626246750121951e-39, 3.01792185197625e-39, -6.081757248136102e-39, -6.351421723312306e-39, -4.086309636236027e-39, -3.1008380834088136e-39, 3.099736662815854e-39, -2.372129250796765e-39, 7.263487657384328e-39, -5.987765153641515e-39, -4.244373300414938e-39], [-1.367622459630163e-39, -5.364871170667562e-40, 3.833484564705615e-39, 4.093211031172827e-39, 2.5118737401515573e-39, -1.4621456462427293e-39, -4.1793026049255507e-39, -1.3781364020079922e-39, 8.387191698523328e-40, -4.1214457939305076e-39, 3.3525098863030864e-39, -1.3315446293676563e-39, -2.6397716522889477e-39, 2.652512257926589e-39, -2.6867571897977588e-39, 5.883168032368918e-39], [-4.39337476742506e-39, 4.9270452745785233e-39, 5.726324899152434e-39, -3.92989950424502e-39, 1.649126505531447e-39, -6.169018906106537e-39, -2.2293215229989585e-39, 1.108749383927725e-40, -3.9530994016203814e-39, -3.002265144234349e-39, 2.7565054195610623e-39, -5.841856352342158e-39, -6.527384172776037e-39, 6.971630818428613e-39, -4.53605077316722e-39, -5.518918713447718e-39], [-2.7411990364352423e-39, -3.873186152796866e-39, 5.751133487164841e-39, 3.038771771826939e-39, 6.446127078725234e-39, -8.409360240228946e-40, 2.12412464598363e-39, -3.0648583440388096e-39, -3.273660223013993e-39, -6.45680497302339e-39, 3.2722196881926674e-39, 3.7976309421974e-40, 7.596242793319828e-40, -6.675113260780553e-39, -1.565959441673769e-39, 5.187231366942034e-39], [-4.1209231096033145e-39, 6.897673088078477e-39, -1.4159322241877611e-39, -4.5062339444433164e-39, -5.66085343230225e-39, -2.5926726096045263e-39, 1.3661258728702642e-39, 4.535864400471465e-39, -6.874024775194532e-39, -5.564006892835833e-39, -6.470994521273142e-39, 1.5266390067648147e-39, -6.083102494661854e-39, -4.279809335980784e-39, -5.493039533408567e-39, -3.7205735396441786e-39], [6.962195875868314e-39, -6.745182387892186e-39, 5.800403141170501e-39, 4.622048459922834e-39, -3.7703280429184955e-39, -6.313850108886829e-39, 9.757913830356577e-40, 6.362817082424195e-39, 6.450298744253529e-39, 6.869347240920616e-39, 8.39108730825415e-40, 4.266302220083157e-39, -1.2486998641567731e-39, 2.784244122662372e-39, -6.080086900366627e-39, -7.295986571368949e-40], [7.603445467426457e-42, -2.367465729507492e-39, -2.8576847738791714e-39, 5.1959530485839914e-39, 4.324000684351731e-40, -2.892675196533362e-39, 2.6303717421902568e-39, -2.40420497264516e-39, -2.095220062560002e-39, -6.948125437988028e-39, -3.071309922168561e-39, 4.597099742063995e-41, -2.182230888105323e-39, -4.683066600253394e-39, -6.860880595599165e-39, -6.42411548244762e-39], [-7.032080031582657e-39, -4.1946608360945507e-39, 1.8825169686601382e-39, -6.045542090624092e-39, 2.0796011898766377e-39, 8.124364158554565e-40, 5.7383284217978405e-39, -5.796995183305263e-39, 5.0957237746246945e-40, 4.033901073670279e-39, -6.547261591492485e-39, -4.0175787491578235e-40, -6.441542030149963e-39, 5.961151693207058e-40, -4.5644018436974396e-39, 6.8070861488522e-39], [6.464978746965796e-39, -2.971208166369518e-39, 4.269295393602955e-39, -5.618113829140343e-39, 6.063254503213157e-39, 3.430853680846558e-39, -2.789536826962127e-39, -3.8318086117422825e-39, -5.5511906170811185e-39, -7.28568002116384e-39, -3.6211065720494744e-39, -3.936492613519668e-39, -2.71060168446671e-39, -6.852510639871753e-39, -4.097347664239514e-39, -1.1218263011968042e-39], [4.895873390239618e-39, 1.8790529588563272e-39, -6.046126432083715e-40, 2.6822169827733464e-39, -7.269527253765568e-39, -3.404229010024387e-39, -6.902089980838029e-39, -1.53057105025571e-39, 1.1593222455052077e-39, -7.347800983385824e-39, -6.664623140476617e-39, -2.7474348146014877e-39, 6.339704065553622e-39, 4.393081896046016e-39, -1.9304091462753674e-39, -2.6565746221746666e-39], [5.720763145547529e-39, -6.762489825225062e-39, 1.7209991037666668e-39, 9.420032744638577e-40, -2.57401712314897e-40, 8.257207252972558e-40, -1.3069938802726855e-39, 4.145567745695395e-39, 4.914493844233566e-39, -2.5091650302200174e-41, -1.5688685372857073e-39, -2.2368142658877033e-39, -4.051941390099997e-39, 1.5042294417233322e-39, -4.586117765999081e-39, 6.635319186990656e-39], [-3.743008328058019e-40, 2.458502485540818e-39, -7.888777860732277e-40, 6.041499344554515e-39, -5.7294722155033077e-39, -2.3927619693854835e-39, 5.077087906347639e-39, -1.792412076105588e-39, 3.436673273368899e-39, 2.0830567918896627e-39, 1.3476553578119987e-39, -6.450874677922367e-39, -4.174385448614235e-39, -4.4715181762881334e-39, 4.8582275069955316e-39, 1.2943093265736173e-39], [-3.04808760401777e-39, -1.5097953992236304e-39, 3.8884659112518635e-39, 2.0985523503081666e-39, 3.646890463793051e-39, -4.668495898821344e-40, 3.4237701171093964e-39, -1.7043979208598107e-39, 5.177301766023828e-39, 1.3486432732293477e-39, 5.2915412220294445e-40, 3.985798701285401e-39, -5.925726868028927e-40, -3.4375406771183163e-39, -3.622709657492662e-39, 6.307188335987429e-39], [-3.452625655086773e-39, 6.335295580584856e-39, -4.119890352635107e-39, -8.124672444216716e-40, -5.4528713129286963e-39, 6.813864229524139e-39, -4.3817201680972705e-41, 1.7500480209321202e-39, -6.280403917140324e-39, -9.02957494053911e-40, -3.980385485317714e-39, -7.013033582855554e-39, 6.7443962594537e-39, 4.752088957412177e-39, 2.0688350137752302e-39, -7.58175336719871e-40], [2.7155790966119917e-39, 3.616898472761107e-39, 1.58069269372768e-39, 2.5745356035807702e-39, 4.624706723109658e-39, 1.4580062105791138e-39, -1.2996931152735532e-39, 3.032793832578129e-39, 1.7121288844874907e-39, -1.7453480658827748e-39, -2.4720866728539828e-40, -4.19453752182969e-39, -3.5266842789263396e-39, -3.674759487651543e-39, -5.332361046295226e-40, 3.467911018735628e-39], [-3.168446530417093e-39, 5.622799771205045e-39, 7.132637209382605e-40, -5.022735742811872e-39, -5.0479927463328626e-39, -7.55695038438016e-40, 5.068823048005051e-39, -6.499055523021247e-39, -2.1315431200537657e-39, 3.829258248537211e-40, -3.865495826824651e-39, 7.257761951859097e-39, 9.951250979479472e-40, -1.2992769296296488e-39, 8.147149271584486e-42, -3.83017469773288e-39], [-6.261046380154141e-39, 1.7920337255202204e-39, 3.1007722223809903e-39, 5.980193938038768e-39, 6.259146219436517e-39, -6.487856345694363e-39, -5.216249455541272e-39, -3.7157194417637574e-39, 4.2755409808584505e-39, -1.1384428983867679e-39, 1.5507329325604156e-39, -4.165079425512654e-41, -3.6267285814883456e-40, 6.83752095019887e-39, -2.5734327816893465e-39, 4.120536351227161e-39], [3.087988176490955e-39, -1.2879586419332972e-39, 7.258891398421343e-39, 7.122015367023023e-40, -5.978023326717529e-40, -1.3197989456396857e-39, -8.86296055313089e-40, 7.205967158020723e-39, -6.305201294765016e-39, 6.566442564872163e-40, -1.240149140927463e-41, -6.67084210306129e-39, -5.500669603546816e-39, 5.454642554187603e-39, -1.483046012838134e-39, 4.5021099230628085e-39], [-1.2227814477606213e-39, 4.908885847779338e-39, -4.232877047813617e-39, 5.662010904833782e-39, 2.8761763084144016e-39, -4.337434932729213e-39, -5.29466331500796e-39, 4.406943540455117e-39, -1.1037131172469416e-39, 1.7571427950569968e-39, -9.380796387637482e-40, -2.6722649610797116e-39, -7.130521248701475e-40, -6.394741464038443e-40, -1.6748403323518073e-39, -2.9830841708546706e-40], [3.8407040543938165e-39, -6.402308475745797e-39, -1.0124465482654663e-39, -5.641806983575147e-39, -5.29773496124176e-40, -4.0556632388212434e-39, 4.2711969556190435e-39, -1.2766165321630521e-39, 1.6271821715801203e-39, 1.9648628716177217e-39, 4.392456916930927e-39, 3.524601949408353e-39, -3.640892906365741e-39, -4.104787157786614e-39, 7.108145314823136e-39, -6.322413443802318e-39], [5.2834781506657195e-39, 2.953944169289036e-39, -1.558141597541301e-39, 4.751640541903593e-39, 1.2481197265925427e-39, -1.580645049579893e-39, 8.340514446676668e-40, -1.754874092843255e-40, -1.196015245793553e-39, 2.002315375673731e-39, 1.5213799336282036e-39, 6.493596064204237e-39, -8.5869047556589e-40, -9.442075169482407e-40, -7.12910033205865e-39, -7.334906234917107e-39], [-4.8128856925853735e-39, -6.836083217974473e-39, 5.41408477273465e-40, 3.3860527676436296e-39, -5.4323801254848745e-39, 3.153964110788296e-39, 3.7284208110443975e-40, -1.4692418216660702e-39, 3.757483741194494e-39, 2.7011989717710904e-39, 3.8989448211680845e-39, 4.1593873511505664e-39, 6.149077027660731e-39, 1.6456092463859916e-39, 4.838024987035361e-39, -5.5272648471012366e-39], [1.5557790083304492e-39, -2.4790343106401052e-39, -3.551523695504961e-39, 4.250418501990035e-41, -4.5679695495876106e-39, 5.498936197346446e-39, 6.777088552626398e-39, -6.954750777127356e-39, -4.359852905561482e-39, 2.6147935071623578e-39, 6.005211319522359e-39, 7.141804503936218e-39, -2.6681703669669544e-39, 1.6920987242384318e-39, 5.0563094527186304e-39, 4.8582443225771035e-39], [-6.4475003512202726e-40, -5.73615080398428e-39, -2.7446588423436603e-39, -6.068608864645343e-39, 4.894536551504652e-39, 3.9335961295939086e-39, 6.224256690271757e-39, 6.516458248649697e-41, -3.426838960746268e-39, -5.970407269563924e-39, -1.5844313580304988e-39, -4.9140174027556955e-40, -1.527041179424076e-39, 1.3881500808340573e-39, 2.7826340307268628e-39, -4.652165166518103e-39], [4.356739220373752e-39, 7.154220008330136e-39, 4.619940907032489e-40, -7.223155484984131e-39, 3.576419164022156e-39, -7.360869492864117e-39, -6.410706457442496e-39, 5.367928803916719e-39, -7.133903983194355e-39, -7.27958857673942e-39, -5.77164008889177e-40, -1.5533393477040597e-39, -2.2347487519512885e-39, 3.074593164470474e-39, -4.464564933308154e-39, -5.6180031265616614e-39], [-4.9830481677052647e-39, -1.7352909468043156e-39, -5.129273662457559e-39, -6.979232862597575e-39, 4.287140929546131e-39, 6.811409154614642e-39, -3.022698878441133e-40, -3.7696988599080137e-39, -3.918333186720483e-39, -4.455865672441625e-39, -6.339394378593006e-39, -1.771323935515964e-39, 1.0217932090225128e-39, 4.8640947436656596e-39, 2.9442177566481575e-39, -2.8360249035161027e-39], [4.590499626297025e-39, -1.0914657686687427e-39, 1.7729816715992602e-39, 7.0742030634202605e-40, -4.259075723902634e-39, -4.432360292001041e-39, -6.086803323906136e-39, -2.6113757402078696e-39, -5.386113454088262e-39, 5.870050477444373e-39, -8.07960668560403e-41, 4.16719398489532e-39, 4.618477951435734e-39, 9.51499874156587e-40, 3.1009277665105304e-39, 5.925029021393693e-39], [-4.2833279964247035e-39, 4.983760027325142e-40, 2.69970518760812e-39, -2.967776386430386e-39, -1.4954867406044097e-39, -2.3452173137894068e-39, -2.9246920638462555e-40, -5.741147834308062e-39, -5.2117821160370045e-39, -4.8829422080108284e-39, 3.9327973894692435e-39, -5.938854232042722e-39, -3.6874748699168264e-39, 1.832335069354202e-39, 3.312485999565041e-39, -4.071640843911475e-40], [4.378987636091837e-39, 3.008391621120377e-39, 1.3900754649240396e-39, 4.658939043294649e-39, 2.4346677999611172e-39, -3.930000397734451e-39, 9.591775884426227e-40, -7.36522192589431e-39, -3.456291451869447e-39, -7.276079725384751e-39, 6.584632820237564e-39, 5.655220212475664e-39, 3.903714841140646e-39, -3.767390921337271e-40, 7.804994225550296e-40, -8.462679646796506e-40], [3.166001264596846e-39, -7.041285161194806e-39, 1.1069192881333168e-39, 6.742330745517285e-39, -3.420147760579117e-39, 2.3203933114938927e-39, -3.794553690769743e-39, -2.8777906042453038e-39, -4.911343725285764e-39, 3.9128358928449364e-39, 2.830314612273979e-39, -1.3180781511254948e-39, -3.1669205163894433e-39, 2.288227906543781e-39, -4.0355041591134666e-39, 6.402578926349412e-39], [-1.6167943460640804e-39, 4.3925101662725716e-40, 3.2978410293143823e-39, -6.719654933767581e-39, 6.599929394274133e-39, 1.9647269456666822e-39, -3.2710117689164194e-39, 1.3259674614796436e-39, -4.102500238692836e-39, -2.0495531469061207e-39, 2.9487047143309255e-39, 1.4225982009825543e-41, -6.362214524084536e-39, 1.9293553698301952e-39, -1.2734439924398208e-40, 4.597043690125422e-39], [-6.475646832174701e-39, -5.748260825312975e-39, -1.0989543076620945e-39, 3.396943659308362e-40, 1.0830271493165787e-39, 2.4378193202073837e-39, 3.8486297985080376e-39, -2.7860700145613872e-39, 7.134991390802671e-40, -6.15854420008571e-39, 5.916411035838096e-39, 5.550767424944892e-40, 4.0373454652955894e-39, -2.4274525141683087e-39, -4.13979859991777e-39, 2.2344979195261744e-39], [-5.548721529186978e-40, -5.743856544239602e-39, 3.718572485437123e-39, 7.0605964553316665e-40, -1.1549866280565867e-39, -1.4284892597265758e-39, -7.2316809848410835e-40, -1.3215239440492696e-39, -9.923182971239046e-40, -2.904650693209482e-39, 2.472294065026703e-39, 4.4808928630144665e-39, 1.2855876449316596e-39, -1.0503600795162385e-39, 5.694344465599613e-40, 5.7856839021012334e-39], [5.344361766343704e-39, 5.975599080374247e-39, -6.712679270012172e-39, -2.4730311480189377e-39, -1.506381836164535e-39, -7.267814867042163e-39, 4.723608967423239e-40, -5.722692733532904e-40, 1.2575308470789481e-39, -2.3390305810694128e-39, 5.150273521243931e-39, -3.595871989303913e-39, -5.317099504720265e-39, -3.8987458367861504e-39, -2.1435494452961008e-39, -2.59582973504465e-39], [-1.8436967973029478e-39, -1.422968143777136e-39, -1.946641787686106e-39, 6.175249079078925e-39, 4.176909187148484e-39, -5.612592713190903e-40, -5.1237315270311547e-39, -4.9618128907768864e-39, -4.513924270415531e-39, -6.338004290516396e-39, 1.880794772847483e-39, -8.735218185123039e-40, 7.2269445960316656e-40, -2.140728631487415e-39, -1.6439136752441586e-39, -2.7888403816253574e-39], [1.6092161239690118e-39, -7.317978549468063e-39, -3.2019950169514935e-39, 3.949733482709073e-39, -2.7011765509956612e-39, 3.998306691377964e-39, -6.597817637488396e-40, -4.9023950332925855e-39, -2.414063107341685e-39, 1.4101770913947791e-39, 2.5649647350694317e-39, 1.2840111841592942e-39, 4.5285818523523686e-39, 7.004908854359398e-39, -2.1689633942450957e-39, 1.3598200297808025e-41], [4.821994132603485e-39, 2.475107872343067e-39, 3.209060363808619e-39, -3.102825124631226e-40, -4.797880588629383e-39, 4.4214273613823785e-39, -3.028945866995093e-39, -4.8936761542475565e-39, -6.409001077211413e-39, 6.356907806800137e-39, -1.4292655790758118e-39, 5.100221942695177e-39, -4.123501498777672e-39, 6.937444741092944e-39, -5.5070665310364586e-39, -2.426880784394864e-40], [1.9722687340016784e-39, -4.834712317465697e-39, -7.023868422581713e-41, -3.18676850783814e-39, -1.3969348209069096e-39, -3.84098711668361e-39, 6.995197856001627e-39, -1.0332474226699039e-39, 6.26197263843906e-39, -2.940910692272351e-39, -1.1233369009413464e-39, 1.4302647048808754e-39, 1.687812152236062e-39, 1.0854541982567893e-39, -7.33869814856157e-39, -3.8976023772392613e-39], [4.0346157358870847e-39, -6.917089479600162e-41, 6.060240310216395e-39, -4.311388998172808e-40, -3.516544483238485e-39, 5.4123415574450297e-39, 4.6499553188398627e-39, -5.5883390393703694e-39, 9.593569546460563e-40, 4.730276345516497e-39, -3.226098751836345e-39, -7.783498307107553e-40, 6.386810114730365e-39, 5.544329859799784e-39, 3.701922257084015e-39, 5.527843583367003e-39], [6.029553275146146e-39, 2.1455617098908712e-39, -5.705560458508069e-39, 2.5549818848095817e-39, 3.9055323252488755e-39, 1.541421304264977e-39, -1.7539968800045876e-39, -6.322587204811894e-39, -2.13343347168214e-39, -2.0564867717076e-39, -5.99725054294653e-39, 1.30817797747504e-39, -4.528593062740083e-39, -3.432211539058489e-39, 3.9138462290377146e-39, -1.851381518081305e-39], [2.189654967369316e-40, -4.8540978804211663e-39, -5.582132688471875e-39, 2.2747670334954766e-39, 2.7152680083529115e-39, 6.362147261758248e-39, -7.302906183185785e-39, 7.128717777577889e-39, 1.184328416601084e-39, -5.932617052578012e-39, -1.670611213586475e-39, 2.2385827045496812e-39, 6.491778580096008e-39, 1.874892503715747e-39, 4.38804142546984e-39, -3.516042818388257e-39], [1.9608705722928603e-39, 1.698687629617687e-39, 2.1840147410504085e-39, 7.214688839662681e-39, -2.437108861885971e-39, -7.24285493879561e-39, -4.894018071072852e-39, -5.1661726536201604e-39, 4.652181982099675e-39, 7.32990780329486e-39, 2.117031273157218e-39, 4.355047853127312e-39, 4.8518207704166385e-39, 1.199259251738465e-39, -5.3445187117717085e-39, -3.272627466045786e-39], [-6.923016972104256e-39, 1.921950908744703e-40, 2.1179785509191015e-40, 7.176310077321753e-39, -3.898087226507918e-39, -1.0328914928599654e-39, -3.192673579566805e-39, -3.374634987756311e-40, -3.076857662788823e-39, 2.7169075275561716e-39, 3.3160565080521406e-39, -2.7787580391745404e-39, -5.397499004110901e-39, 4.1619068857894224e-39, -4.649214031952235e-39, 3.3332041973600834e-39], [-5.00365706422009e-39, 5.299559451842311e-39, 1.6086850318510327e-39, -3.5501139892498505e-39, 4.4528346638632906e-39, -2.4309543590306564e-39, 4.283465323674207e-39, 6.574323467435526e-39, -1.3328548434318e-39, 1.9332818081272333e-39, 2.113036171235428e-39, -5.895760100369341e-39, 1.5817997195144968e-39, -6.668794806004912e-39, -4.092940580569212e-39, -2.6082942848848193e-39], [-3.481440555408684e-39, -3.944167525208775e-39, -4.362980603733855e-39, -1.781034933873735e-39, -1.0787882214619961e-39, 2.1763090007950863e-39, 6.66930627994439e-39, 1.9857632382131264e-39, -3.189582315154504e-39, -4.893194107575829e-39, 8.699036658774172e-40, 7.084690381127267e-39, -6.90239826650018e-39, -4.321720771750275e-39, -1.788309074202045e-40, -5.251607018393116e-39], [-4.329619891193674e-40, 2.1094586562560066e-40, -1.3712336057727281e-39, -6.348896583479592e-39, -1.0748603818664936e-39, 3.714547956247582e-39, -2.9690585745252435e-39, -7.227645245263828e-40, 3.956403663399259e-39, -4.030947136507482e-39, 2.5682241552974512e-39, 5.647909638387282e-39, 5.17389380815859e-39, -3.765639298256865e-40, 3.697230709825456e-39, -4.752918526103057e-39], [-5.4536097972193955e-39, 3.562579940388484e-39, -5.704153554849887e-40, -5.619360984773592e-40, 4.970405652960126e-41, 2.0040866169326377e-39, -2.0872845093565307e-39, 3.722927721064244e-39, -3.401671640326994e-39, -5.601830740984889e-40, 5.665581413320882e-39, -3.8641463764035063e-39, 1.677315025439805e-39, 8.988825181196545e-40, -2.5199157920383174e-39, 6.50002522155856e-39], [1.2612330776216943e-39, -4.85191185481682e-40, 2.4221415929885177e-39, -5.123151389466924e-39, -3.428500900724957e-40, 3.948693719248544e-39, -3.5719041803701014e-39, 4.809263336055094e-39, 3.324608632579915e-39, -4.8023759541029373e-39, 5.7856881059966263e-39, 4.283162643205913e-39, -3.105098030740361e-39, 5.690418027302575e-39, -9.06076784435498e-40, -1.953552991712156e-39], [-3.0333137143083936e-39, -2.7902907255359336e-39, 7.040286035389743e-39, -2.5077637317556926e-39, -6.502080926405724e-40, 3.7107378257230827e-39, 6.978172079660081e-39, 5.204643901659734e-39, -2.067816269791666e-39, 2.95609376113331e-39, -4.8741588692364404e-39, 5.037945436343654e-39, -2.5846613862839813e-39, 1.4318481721455624e-39, -4.038990589692707e-39, -1.628077601298824e-39], [1.941563482051393e-39, -6.272021349726733e-39, 3.252769665507839e-39, 2.9004327848318642e-39, -3.4339561556465734e-39, 7.034621986996942e-39, 3.947083627313035e-39, -2.4526534657507262e-39, -3.5478915298854313e-39, 6.89781321792491e-39, 6.839499583630497e-40, -4.7449563482287636e-39, -3.9959483060625057e-39, -4.1465010104726354e-39, 2.423097278541187e-40, -5.186394791758832e-39], [-6.124089073444891e-39, 1.6118561702757998e-39, 3.085464437956706e-39, -1.1665641559688383e-39, -3.0135848332291645e-39, -4.6315296453324556e-39, 7.0761144345256e-39, -6.936362938678486e-39, -1.4951574354652933e-40, 6.166010318303632e-39, -6.137102932283075e-39, -3.02013169965449e-39, -4.345185514535394e-39, -3.091494225248696e-39, -2.571161276878676e-39, 2.874564815180428e-39], [-6.9358752868129e-39, 6.120905323333945e-39, 4.691950832517213e-39, 3.235600956722931e-39, 5.3639154851148926e-39, 1.2305614568345527e-39, -6.982332534800661e-39, -1.301439133160102e-39, 1.953768791675662e-39, 5.503219966751887e-39, -8.921436738047164e-40, 1.5136237466281658e-39, -1.5106081523329388e-39, 5.031278058250396e-39, 3.975427691350933e-40, 9.64438062877698e-40], [4.751777869153097e-39, -3.768280745862117e-39, 4.544551049651814e-41, -1.2094859279311075e-39, 2.632054701645911e-39, -4.2254333503711237e-39, -7.344292132031154e-39, 8.280188547787485e-40, 3.346488506801883e-39, 5.998681268678606e-39, 5.689235331398685e-39, 4.069073665124832e-39, -2.374735665940409e-39, 8.394870814107828e-40, 2.3526399917549354e-39, 7.031763338129719e-39], [5.096393595290642e-39, 1.3946422966192742e-39, -4.359003718692101e-39, -1.6911430386857622e-40, -6.687958963803018e-39, -6.485629682434551e-39, -3.236139055333232e-39, 6.11383717387989e-39, 4.472913869558601e-39, 1.399274989342332e-39, -2.644009178845066e-39, 6.197284497430433e-39, 4.724654336077626e-39, 6.46645431424873e-39, -5.506853533669881e-39, -8.773501659168393e-40], [4.417910102236923e-39, -4.038811223489273e-39, 9.695471970786263e-40, -3.4028291128585263e-40, -5.346092369947145e-39, 1.8000197254684075e-39, -2.9894124347195615e-39, 6.051714810359443e-39, 6.757677766298571e-39, 7.321497209911983e-39, -2.295122294988259e-39, -5.8491108744919676e-39, -3.272697530969002e-39, 6.534443914439306e-39, 5.8737443001963335e-39, -3.400438497678388e-39], [1.038869432108775e-39, 6.314029475090262e-39, 3.976614591150216e-39, -2.192192718888208e-39, -3.0783094079978635e-39, 4.7565871254826596e-39, 2.0661879609761206e-39, -6.953977260375049e-39, 1.558327970237056e-39, -6.00212706160238e-39, -6.590362729658188e-39, -5.5151996673234e-39, -5.317877225367965e-39, -6.333315545854765e-39, -5.187763860358477e-39, 3.657697277549924e-40], [-6.629178697119985e-39, 4.2814040136331855e-39, -2.9550722145528175e-39, 1.3788412551355476e-39, 5.4483381123966056e-39, 3.7705214221065723e-39, -7.195437801359786e-39, -4.493728756947682e-39, -4.541131881398862e-40, 2.134603555899851e-39, -7.144368880125933e-39, 5.4289287273672425e-39, -3.8974482344081856e-39, -3.431196998970318e-39, -5.708553632027867e-39, 3.9537075651538984e-39], [-3.4756742122279876e-39, 3.6451360381157164e-39, -5.1322556255896425e-39, 4.4266219747896306e-39, -3.139455066488677e-39, 4.585002332421479e-39, 5.393844417715942e-39, 6.171878956272224e-41, -1.8491142171660275e-39, 5.147002890628197e-39, -3.504100952875281e-39, 3.685967072769213e-39, -2.965304495939317e-39, 5.965888082016476e-41, 1.88719310163559e-39, -1.760461069820518e-39], [2.4108162987998445e-39, 5.922789746447702e-39, 1.658237748146487e-39, -1.4655059599601802e-39, -3.4753070720303345e-39, -6.592139576110952e-39, 1.871183266680679e-39, -9.821658897498713e-40, 1.5439338324115116e-39, -2.5633602483277797e-39, 4.0694996598579867e-39, -3.028842170908733e-39, 2.4546867498224615e-39, 4.6613745000256456e-39, 2.6461027187507672e-39, -3.7831373121808887e-39], [1.5566520172737236e-39, -3.16197813670577e-39, 3.760439079655755e-39, 2.1586960803969877e-39, -4.916147376421469e-39, -5.776830498403629e-39, 8.684771440407346e-40, -4.952539097539985e-39, 2.0550322239016307e-40, -3.0259779168476532e-40, -2.4120144089868422e-39, 6.78130786230248e-39, 5.0911331208555664e-39, 4.12301805080748e-39, -5.3835953207478704e-39, 5.402700624010475e-39], [9.921137075481132e-40, 9.450048557744415e-40, 5.213243670335295e-39, -9.921753646805435e-40, 1.1142382700124853e-39, -3.8500058736000046e-39, -1.9165446992693377e-39, 9.161969619448519e-41, 3.912772834414042e-39, 2.5784844626532375e-39, -3.383819097891496e-39, 6.825067610746416e-39, -5.6859030436505204e-39, 5.950325261271685e-39, 1.8213965335416826e-39, -6.730111422908373e-39], [3.700596628736764e-39, -6.282435799913595e-39, -2.035055312994216e-39, 2.937797007084621e-39, -6.583532800943069e-39, -5.464094312329474e-39, -7.153997201874309e-39, 4.152698953580344e-39, 1.3657251015094673e-39, 3.5411484816751003e-39, -2.78355328251946e-39, -5.91688887861443e-39, -9.721536122222705e-40, -1.3281184546223821e-39, 1.2426714781632478e-39, 4.8790297826984335e-39], [6.636351943958864e-39, -1.2100632628984093e-39, -3.748100646677375e-39, -5.092753021880326e-39, 6.19066055958957e-39, -6.979576180721334e-39, 5.456799152524199e-39, -4.097695186258666e-39, -6.061941486552085e-39, 3.5996134562036603e-40, 1.24341416634934e-39, -3.9769438962893325e-39, -7.076572659123434e-39, 7.166091808919896e-39, -3.590535844751764e-39, -3.260801908305349e-39], [3.4139217915021215e-39, -3.1784574066462296e-39, 6.121051058374235e-39, 3.598412543419734e-39, -5.624287950174158e-39, 1.7751102439665696e-39, -6.596105250764991e-39, 7.054119653829557e-39, -2.70518426460363e-39, 5.1669545781632536e-39, 1.9260483054543886e-39, 7.939925254680133e-40, -5.365176653732785e-39, 5.019097971998485e-39, -4.3629539790630325e-39, -6.484943046187032e-39], [5.891752386761372e-39, 4.6975308030021545e-39, -4.9669220249778147e-39, 4.2270588565897404e-39, 6.9317666797155e-39, -2.000873439553941e-39, -5.999599119172738e-39, -7.149239793587926e-39, -1.3694357398429994e-39, -3.011089120664202e-39, -2.146047960457992e-39, 4.9801741045549345e-39, 6.66621501553209e-39, -9.075579569122894e-40, 6.734605387083463e-39, 7.023183187632658e-39], [1.9882883780458397e-39, -4.195741237210545e-39, -2.6369844696434056e-39, 5.130157881788548e-39, 2.1788887912679083e-39, 5.845536162109475e-39, 9.565319369419774e-40, -1.4734232962836154e-40, -4.976707292154195e-39, 3.5830360953706978e-40, -3.820334779916391e-39, -2.8547616652825898e-39, -1.5986853660096108e-39, 1.4018842070829048e-39, 3.237456275889697e-39, 9.698386671592059e-41], [-3.2529882680682736e-39, 6.749480170282271e-39, 1.4176137823449509e-39, -7.372029433834e-39, -7.33975472760367e-39, 5.7922587944958454e-39, -3.172180990824519e-39, -3.333352734997302e-39, 4.728336948441871e-39, 2.26388454962153e-39, 1.6424647326320467e-39, -8.522220818545667e-40, -5.602755597971343e-39, -3.926883909949793e-39, -6.464094527634807e-39, 2.9223294746354038e-39], [4.043710162920553e-39, 6.787993457275774e-39, -2.1937005160358217e-39, 1.1288552142938575e-39, 5.8455249517217604e-39, -6.728303747889394e-39, -6.455448516109923e-39, -1.4667615233842152e-39, 5.685241630775359e-39, -4.7758059339208745e-39, -6.194588399185072e-39, 7.252557529362595e-39, -1.2019553499838259e-39, -7.258978278926131e-40, -1.9798567651859973e-39, 2.352746490438224e-39], [5.576437811512859e-39, -7.123591827795389e-39, 7.373230346617926e-39, 6.861966601909017e-39, -2.6316819562544005e-39, -2.6418876129700782e-39, 6.78934991418924e-39, 4.706182419720896e-39, -6.561075591753799e-40, -2.5374670553039858e-39, 4.57378213561763e-40, -1.5842744126024944e-39, 4.889553534165513e-39, 3.8390687390859494e-39, 1.2142237180389897e-39, 5.542620275673308e-39], [-7.270715554863316e-39, -4.603559727984532e-39, -3.6470614222056987e-40, 1.7342778080146088e-39, 1.360072263504381e-39, 9.680590181095134e-40, -1.133978361479429e-39, 2.2727996104515646e-39, 2.1558920821698738e-39, -2.435878521834294e-39, 4.383129874352381e-39, 4.987526717597247e-39, 6.200546720255381e-39, -4.600000429885147e-39, -9.885656198364428e-40, 4.64202256823332e-39], [3.3232297548910194e-39, -2.497282019242543e-39, 5.7870739901778436e-39, 6.442507524791883e-39, -1.1563318745823385e-39, 4.696956270631781e-40, -6.575951776251071e-39, -6.979012858738676e-39, 4.4820615459337134e-39, -4.704862396567502e-39, 4.38482404419575e-39, 8.807034731419686e-40, -8.57762815982507e-41, -1.659169611625263e-39, 1.5392534955406667e-39, -5.950866162478914e-40], [6.548134600435759e-39, 2.8772805316042896e-39, 6.015356720404071e-39, -2.991833878465915e-39, -8.945132695078897e-40, 3.080031603810519e-39, 3.9599937900648595e-39, -2.8761763084144016e-39, 3.0278122165374544e-39, -1.942322985819057e-39, -1.1032198601874993e-39, -2.7967086725025413e-39, 4.5893841927194224e-39, 2.2956631961954883e-40, -3.115537704299581e-39, -2.3862389250340515e-39], [3.0354394840787744e-39, 6.984909522676555e-39, 8.204910794283955e-40, 1.898633302298338e-40, 2.384368191584178e-39, 1.4064328218981032e-39, -7.59098792407861e-40, -2.8837601357033275e-39, 2.1054103049925722e-39, -2.0938285731849276e-39, -4.156671634726705e-40, -9.767274504098267e-40, 1.1324285253778858e-39, -5.5670112767433457e-39, -1.6885198079605462e-39, 4.318727598230477e-39], [-2.1462147149752466e-39, -4.7632432931882025e-39, 4.6492560709061646e-40, -3.4350085307932814e-39, 1.9694745448638147e-39, -2.1062188542064876e-39, -1.4684290685567618e-39, 1.2172000759772156e-39, -3.276049436895667e-39, -2.2162277901483074e-39, -1.2004083164792113e-39, -2.3923864213970445e-39, 5.455055937234579e-39, -7.234931997278317e-40, 3.214336252526802e-39, 4.9331283112121574e-39], [9.881676510725745e-41, -9.989226167862675e-40, -1.873628532500926e-39, -3.61061364914861e-40, -1.143801463714346e-39, 1.661668126787154e-39, 6.318285218526417e-39, -6.790759620444351e-39, -9.627677151082229e-40, -3.557854761966781e-40, -6.771252144522485e-39, -3.354052715912308e-39, 4.999552661018082e-40, 6.384923966997384e-39, -1.4763716282525548e-39, 1.300895429355944e-39], [-2.6258091143904152e-40, 6.285095464398884e-39, -2.7845622174137737e-39, -4.3874879125764314e-39, 6.037637365986835e-39, 6.933330528801687e-40, -4.392760998697686e-39, -1.6585222117347448e-39, -3.9832469367818655e-39, -6.474335216812093e-40, -4.071601607554474e-39, -4.1070320379264626e-39, 4.1307504157336244e-39, -1.5748002336851943e-39, 3.816968861005083e-40, -2.6308439797727343e-39], [-1.7648975807585703e-39, 3.139292515866815e-39, -6.170376764318468e-39, 2.820599410020815e-39, -6.507248915142154e-39, -1.0287548597932785e-39, 3.0027093558475396e-39, 3.4102461856301975e-39, -4.3240062895455886e-39, -2.41725946913881e-39, -3.035091962059622e-39, 4.24711844410655e-39, -1.4006538670312277e-40, -5.580680943262834e-39, 2.7124990425874057e-39, 1.471915499136002e-39], [6.521086737477362e-39, -4.6157734453995874e-39, 6.046535611235298e-39, -4.5894150212856376e-39, 4.360802985920294e-39, -4.815926510252958e-39, 2.702482561164412e-39, 1.6914751464218072e-39, -2.1765388137432356e-39, -3.181463191852206e-39, 6.1054938428233e-39, 3.8200138825680606e-39, 3.846991680603242e-39, 4.9123386471954344e-39, -6.312050841658636e-40, 2.978608423559617e-39], [-7.133731623483243e-39, -2.3397508484800757e-39, -6.863254395197731e-39, 2.665549938838667e-40, 4.450878451207093e-39, -2.8727235089983053e-39, 4.366221807081838e-40, -3.2183621830148074e-39, -4.4965397616671174e-39, 4.775204776879679e-40, 5.532326337154378e-40, 3.882700969369631e-39, -2.088537270183637e-39, -6.209262796703482e-39, -3.569222095109384e-39, 6.081321444313697e-39], [5.104849030224378e-39, 1.4798272302655798e-39, -6.172566993818208e-39, 6.643920356964682e-40, 6.95366336951904e-39, 6.18620863436841e-39, 1.502688013412575e-39, 5.862774935817599e-39, 4.283947370345935e-39, 2.3120780064065892e-39, -5.257726488786822e-39, 6.496217893630989e-39, 4.344837992516241e-40, 4.58775027871002e-39, -1.4351930715799057e-39, -1.6704066240106836e-39], [7.737549730462342e-40, 4.952760502697348e-39, 6.247490218810263e-39, 5.929660312818287e-39, 4.152487357512231e-39, 3.78231474998233e-39, 4.207830239062275e-39, -2.2359188361689997e-39, -5.274521050881755e-39, 1.37821347342353e-39, 3.9222540198236635e-39, -4.903703846058265e-40, 3.4351514632366425e-39, 5.66770297919587e-39, -6.108697211112747e-39, 2.9219875578101086e-39], [-2.1081904811457927e-39, 5.8390845839797235e-39, -1.60659429454226e-39, -7.068099007309662e-39, -5.961227363324132e-39, -2.8696126264075042e-39, 4.5550916167004655e-39, 9.195642821546244e-40, 7.330752786268848e-41, 3.2898087865168725e-39, -3.561786805457676e-39, 6.806328046383e-39, 6.374484293438164e-39, 5.988908613188404e-39, 3.405121637146162e-39, 1.3136682648582646e-39], [-9.899164715560519e-40, -1.548417987497351e-39, 3.801330370143218e-40, 1.415029787976736e-39, 3.1669261215833006e-39, -5.4010428879271787e-39, -3.4597498564794004e-39, 4.940719144993405e-39, -1.858317945479713e-39, -3.342960037268713e-39, 1.252060177874224e-40, -4.9497687304760146e-39, -6.668078742489642e-39, -2.7258015689092412e-39, -5.062874536023992e-39, 1.0343082056073978e-39], [3.484311815962086e-39, 9.976544416760535e-40, -1.2694208645487442e-39, -9.133481221668795e-40, 1.1257863706569861e-39, -2.6532185123526086e-40, -5.164643836995582e-39, -2.800831292584585e-39, -2.843921220362573e-39, 1.3349189560697505e-40, 3.783297060205822e-39, 2.424631700359623e-39, -4.9960970590050573e-39, 1.2610481062244034e-39, -7.539546257453246e-40, 2.0768574474834898e-39], [3.7781234662755345e-39, -3.62366814564226e-39, -1.7571245781769606e-39, 6.460585676280138e-39, -1.727747757170855e-39, 2.1703142459647048e-39, -2.205000586852137e-39, 4.878243654259947e-39, 6.259785211536249e-39, -1.68778552756524e-39, 4.175308904302225e-40, -3.199765551094753e-39, -9.383725101427921e-40, 1.1100189603364033e-39, -1.559168749315651e-39, 3.221627208436684e-40], [1.6029775432058377e-39, 1.1244817617866997e-39, 7.129147976206437e-39, -1.1573253951935448e-39, -2.8127493360236674e-39, -9.907474415453965e-40, -5.110367343576889e-40, -5.811829328848606e-40, -4.096680646170495e-39, -7.059481021754064e-39, 3.7747197123056895e-39, -1.5133757167999803e-39, 6.102677232910008e-39, -3.573269045074354e-39, -2.3394005238639945e-39, 6.6593878894139e-39], [-5.84064843306591e-39, -5.651616072825421e-39, -5.923714603434157e-39, 3.34997073348573e-39, -6.583824271023648e-39, 7.050343154468202e-39, -1.0461758023017646e-39, 1.2964617210148202e-39, -3.9608990288728133e-39, -3.100395273094087e-39, 4.6021976658772086e-39, -2.972204489577653e-39, 2.680161277926182e-39, -3.391875162762899e-39, 6.897779586761766e-40, -6.131563599453599e-40], [-5.6958690783287985e-39, 7.13924853553729e-39, -1.161519481497269e-39, -8.841240426933855e-40, -4.976279896122576e-39, -3.150483285402913e-39, 2.6930364082163983e-39, 1.6038729729245413e-39, -2.7341855376212966e-39, 3.560786278354148e-39, -2.429585290431011e-39, -3.274669157908307e-39, 3.218614416738386e-40, -2.4581241349554503e-39, -4.446219133813213e-39, -6.54052695107294e-39], [-4.8241241062692585e-40, -3.734234798372881e-39, -4.427384281154223e-39, 2.4272058856385875e-39, -2.4718750767858697e-39, -1.0894016560307923e-39, 4.408185090894509e-39, -2.9702482769214553e-40, -4.83959304001694e-39, 5.970143825452631e-39, 9.208548780402676e-40, 1.339834711082602e-39, 6.131560796856671e-39, 3.3713937844083277e-39, 5.3740875106674265e-39, 6.811874385704797e-39], [-4.4744104563185e-39, -3.657338545143057e-39, 4.0420790515080786e-39, 6.602659123682638e-39, 6.642491032531071e-39, 2.4176462275149636e-40, 1.69183247753021e-39, -7.091495086470029e-39, 2.8687242031811223e-39, -5.895154739432752e-39, 1.067462927273323e-39, 5.9810725521759e-39, -4.627269698000908e-39, 5.798116222076723e-39, 4.246186580627774e-40, -3.2941528117562794e-39], [2.842476481645854e-39, 3.106426461684541e-39, 8.963601808838698e-40, -4.9934668217875197e-39, -6.60272778730739e-39, 2.3559722795030998e-39, 4.2237896272724706e-39, 4.434449628011349e-39, -9.113218445874659e-40, 1.53675638167724e-39, -4.9124255277002225e-39, -1.5010737175816727e-39, -5.1607762532340455e-39, 1.0154915698284441e-39, 5.629688554455666e-39, -4.493798821870898e-39], [5.867452470091515e-39, -3.5679441109099195e-39, -1.363071042218036e-40, -1.6158456670037325e-39, -6.282371340184236e-39, 6.9053185724998336e-40, -1.8952827976701373e-39, -3.8911227731402234e-39, -4.066119727962035e-40, 1.992094304674946e-39, 2.214742413776123e-39, 6.622228256736934e-40, -3.362211075571607e-39, 1.43427101719038e-39, -1.3413509160210014e-39, 7.163297619782032e-41], [6.2224756399236e-39, 3.757982603447794e-39, 5.4020476189260996e-39, -1.9836542840243175e-39, -5.2636077384415936e-39, -2.537165776134156e-39, -8.060184688888488e-40, -2.4305143513128584e-39, 3.050024198495467e-39, -3.5296129927167784e-39, -1.1562421914806217e-39, -1.2003802905099248e-39, -2.789926387935209e-39, 5.1715059955753806e-39, 1.643674053206759e-39, -1.635843597388112e-39], [-2.2216438087129228e-39, -4.3735702162287574e-39, 6.097035605292636e-39, -1.6001146904432221e-40, 5.79594420945702e-39, -5.5170493812963086e-39, -6.093203053992707e-39, -7.319959985496618e-39, -1.082096687136267e-40, 6.701513723848432e-40, -4.5277186524983445e-39, -3.5622366222647245e-39, 3.7634126349970525e-39, -4.026311641187496e-39, -5.2882285524597806e-39, 5.0142859130719935e-39], [-3.0954879258720215e-39, -6.923143088966045e-39, 1.3218868803515297e-40, -4.176757846914337e-39, -4.692872886906739e-39, -2.933447376651357e-39, -4.789165913479747e-39, 4.0881145086580775e-39, 4.735307007003423e-39, -5.567078539069633e-41, -2.5199690413799618e-39, -4.623982251803602e-39, 1.0037542938912594e-39, -5.977901413751133e-39, 4.941460431881033e-39, -1.5915387438415542e-39], [-4.3536661728414877e-39, -5.968984951622634e-39, 5.173413162785327e-39, 6.447074356487118e-39, -2.726750247969589e-39, -1.7164392785637538e-39, 5.885054180101899e-39, -3.706808584829116e-39, 9.616718997091209e-40, -1.350184701540105e-39, 2.8999465342647435e-39, -4.271191350425186e-39, -6.180889305397833e-39, 5.519014001743292e-40, -3.0230548082510717e-39, 4.04678741434821e-39], [-2.678694118434034e-40, -7.183955561743109e-39, -1.8257910055258053e-39, -2.027754547995084e-39, 3.9109847775735634e-39, -4.004909609741863e-39, -1.298799086853314e-39, 4.537341369052863e-39, 2.3819803790009684e-39, -5.0397699269442046e-39, -4.6201917394576035e-39, -1.957201972913258e-39, -3.1480604403580956e-39, -1.514470130900618e-39, 6.685356752554767e-39, -6.044489715477384e-39], [2.3759463878135857e-39, 2.0358848816850964e-39, 1.3443468921377279e-39, -2.5280825594884025e-39, 3.5160372131943996e-39, 5.386142881356013e-40, -3.4087495988702986e-39, -6.387698537956747e-39, -4.496245488989609e-39, 8.631480059809073e-40, 1.2708291695053907e-39, -3.85071072672756e-39, -5.6744572377939153e-39, 9.724198589304922e-40, -4.5262949332585905e-39, 9.080414048824815e-41], [-5.393342752865714e-39, 2.3904232022485254e-39, 5.485284747706994e-39, 4.808387524514891e-40, 2.3142962618756154e-39, 6.469273726758952e-39, 3.513178564327177e-39, 3.769554526166188e-39, 4.168397700276175e-39, -1.0262661537206376e-39, -3.620005151456515e-39, 6.851284503715469e-39, 5.948668926486853e-39, 2.2254553405358863e-39, -1.4223922101082985e-39, 1.0213447935139289e-39], [6.438267195638836e-39, 1.3512665039545638e-39, 6.730585061789315e-39, 6.656247579555348e-39, -1.7279579519405038e-39, 8.905391870630645e-40, 2.836078152857747e-39, 5.907847700922607e-39, -6.19874465043026e-39, -5.966304267660381e-39, -3.366290255401257e-39, 3.0815015658995955e-39, -6.698851256766215e-39, -3.998323506959536e-39, 4.805108486108371e-40, -1.3964247482658954e-39], [2.2967730245792336e-39, 2.941912620674343e-39, -2.86152713426835e-39, 2.8132467969785028e-40, -4.373278746148178e-39, 7.134653677872769e-39, 7.127051633703807e-39, 4.433725156705293e-39, 6.645690196925124e-39, -2.7859663184750272e-39, -6.283559641281984e-39, -4.79263692977588e-39, -2.4680649462613706e-40, 2.32019152451503e-39, 9.90050996208627e-40, 3.952404357582076e-39], [2.383768435841447e-39, -1.9763296969512917e-39, 7.2661809530327605e-40, -4.720876435417806e-40, 2.5269643233138713e-39, -4.75553755293288e-39, 4.973559975803321e-39, -5.3971893171502854e-39, -4.3197827759741136e-39, -5.2358760418326054e-39, -7.085800209511013e-39, -6.111903381999122e-40, 4.110369930868484e-39, 2.8009896393110536e-39, -6.506228769860126e-39, -3.3099818792092926e-39], [2.32996698260216e-39, 4.9662045601640803e-39, 6.101117587719214e-39, -5.948298983692271e-39, 1.5793754731712148e-40, -4.7837526975120605e-39, 6.419580880617065e-39, 6.589998392057463e-40, -3.677288831379649e-39, 4.1753285224807255e-39, -3.5318438598719835e-39, -3.500390314541749e-39, 2.375727785253151e-39, -2.9195058582297893e-39, -4.104445240961319e-39, -2.3687717396762427e-39], [-4.7225692039627104e-39, -2.4534816331431422e-39, 5.204632691272019e-39, -6.42888830501711e-39, 4.0695641195873456e-39, 6.704478871398943e-39, 1.1888419989546743e-39, 4.726341499428673e-39, -6.290112112901166e-39, 1.567262649245591e-39, 5.704246040548532e-39, 1.9447051932084092e-39, -1.909440116055211e-39, -5.624601841030167e-39, 3.4802214257447216e-39, 6.867969764530184e-39], [-3.769324713218039e-39, 8.788117202151301e-40, -7.5240759224071e-40, -6.55050980133279e-40, 3.5123475943378324e-39, 4.6908522145211824e-39, 4.0526784730922316e-39, -3.9256703854796874e-39, 2.641024413116054e-39, 1.0011156488829358e-39, -6.233751888666022e-39, 6.276317730818353e-40, 1.9039021845241992e-40, 7.814537068092348e-40, -5.584813372434128e-39, 2.6354136140648975e-39], [6.972606122159783e-39, 4.155326388200953e-40, -6.673403676654076e-40, 6.790944591841642e-40, -2.2833289671125013e-39, -5.4949256811415484e-39, -2.6893271711813305e-39, -6.412022276700497e-39, -2.963379111849335e-39, 2.893787827514036e-39, -1.2156628515618513e-39, 2.5483495391779323e-39, -6.120199068907925e-40, -2.8719962350953207e-39, 4.134170985285041e-39, -6.623111074769459e-40], [-5.4589641586515806e-39, -4.1196633422838865e-40, -6.786477252337374e-39, 9.889243522433099e-40, 3.6539109690993184e-39, 4.021053969349349e-40, -3.314864003059e-39, 2.5162275744802145e-40, -2.0133856335418972e-41, -5.235890054817249e-39, -5.879492426496994e-39, 7.233405983250667e-39, 2.638224618784333e-39, 4.0315693130256425e-39, 3.4946295765549094e-39, -2.5685997032858902e-39], [3.209220111833552e-39, -5.865208991250131e-39, -6.015980298220695e-39, 4.806243537864474e-39, -6.1353050663533466e-40, 5.192205976490387e-39, -5.8502066898910696e-39, -4.632272333518548e-40, -2.4716466651361848e-39, 6.605879307553656e-39, 1.002613636941299e-39, 7.091141959257019e-39, -3.634236738660198e-39, 7.221304369712758e-39, -5.785454089153084e-39, 1.036781497396931e-39], [-3.180527124478037e-39, 6.57886087186301e-39, 7.155483979544957e-39, 3.27277460238454e-40, -4.4725060917054824e-39, 7.301387175650457e-39, 3.756977872448873e-39, -4.9345043863041243e-39, -6.735458777848237e-39, 5.082027483434384e-39, -3.852026545985561e-39, 5.0759906896500725e-39, 3.790114377234762e-39, 3.012149903601696e-39, -3.416707572849199e-39, 4.600336741516585e-39], [-4.26385695426291e-39, 3.9678578770466504e-39, -1.7279173142850384e-39, 6.243818816833732e-39, -3.096939671081062e-39, 3.7979476356503377e-39, 1.7496276313928228e-39, -7.13652020742725e-39, -1.876666547571582e-39, -1.9435925622277353e-39, -1.7564547575110133e-39, 1.2458159919171927e-39, -3.944545875794143e-39, 8.201617742892792e-40, 6.568656616445796e-39, 2.687918866224684e-39], [6.159200007767013e-39, -1.497416328589785e-39, -6.661957870797471e-39, -5.280995049786936e-39, -1.2542405982847135e-39, 5.4294724311714005e-39, 1.098162574029751e-39, 5.372365314854771e-39, 5.461166999837499e-39, -5.873548118411328e-39, 2.2241016862193486e-39, -5.111479974557563e-39, -4.415907646731403e-39, -4.030083936653458e-39, 5.308183042591766e-39, -1.8419647924010423e-39], [5.700039342558629e-39, 5.125254738461876e-39, -6.912283025867528e-39, 2.6158318693244225e-39, -3.842290324255432e-39, -1.3311102268437156e-39, 7.358649836096626e-39, 7.524748545669976e-40, -4.629339415832716e-39, -3.0394429937913504e-39, -6.670332030420276e-39, -2.3980981139376324e-40, -9.302842154067093e-40, 1.3406796940565898e-39, -4.956232920291945e-39, 2.0347498299289933e-39], [-5.487064396756686e-40, -5.388819361422873e-39, 1.6384822423964356e-39, 8.885493432437233e-40, -7.072591570186287e-40, 1.8598033218518972e-40, 2.7324675457040343e-39, -3.7255565569833176e-39, 1.6417164392520973e-39, -3.806960787372875e-39, 2.929462083818817e-39, -3.5768269418752745e-39, 4.217698182848051e-40, 3.613968357672204e-39, -5.47957445646487e-39, 6.5695520461645e-39], [-2.52640660652507e-39, 5.4812630211143815e-39, 4.023504840363453e-39, -2.482459084086915e-39, 1.5533421503009884e-39, 2.8962330933342827e-39, -1.6506875520207048e-39, 2.987562720746653e-39, -6.174961812893739e-40, -2.5856927419537244e-39, 5.2132226508583305e-40, -7.954232512000889e-40, -3.755925497302165e-39, 3.2591231527450876e-39, -3.2366589370634965e-39, 6.866595090736682e-39], [5.753395182886261e-39, -2.6384600369263397e-39, -4.868172522196845e-39, 5.62323557502745e-39, -5.2458757076740273e-39, -1.4130609636343596e-39, -7.148663859919088e-39, -6.770065244723202e-39, 6.19113700106744e-39, -4.266754839487134e-39, 4.880180248737644e-39, 3.9299583587805214e-39, 7.205916711276007e-39, 8.678942038795755e-41, 4.646966349215458e-39, -4.034228977510931e-39], [7.550280203689974e-40, 2.6233848680471333e-40, -5.103128235710187e-39, 3.304553248958498e-39, -1.3944405096404114e-39, 2.1717533794875664e-39, -3.2926253964301654e-39, -4.572976389000643e-39, -5.6720806355984205e-39, 1.3305623191441646e-39, -2.693514250992733e-39, -4.313402664066043e-39, -6.194484703098712e-39, -5.310223333155823e-39, -7.169827670625786e-40, 6.177245929390588e-40], [4.933545898154526e-39, 6.033433470593861e-39, -1.5691810268432518e-39, -6.109934557656746e-39, -5.0587351003603767e-39, -2.3465891849859808e-39, -4.598061032810522e-39, -2.784567822607631e-39, 1.8073373060491117e-39, -3.8647979801894174e-39, 1.2040713106649564e-39, 2.0732322883562815e-39, -3.9483546050201776e-39, -6.389028370199391e-39, -4.262410814247727e-39, -6.399232625616604e-39], [-2.0913202489337862e-39, -3.9256143335411144e-39, 6.176511648995282e-39, 3.823760954661665e-39, -1.5182676497389382e-39, -4.6653597928581854e-39, 3.1069939875625925e-39, -2.517380843116354e-39, 5.713517031188505e-39, -5.933820767958867e-39, -2.2443056074779838e-39, 6.774611056941472e-39, -3.6756198849086384e-39, -1.6852856111048845e-39, -7.018259024829021e-39, 3.969141466439972e-39], [6.243867862279983e-39, 6.613576640018193e-39, 1.928600069957924e-39, 6.746770059052266e-39, -4.6584626018167786e-39, 4.3809354409572486e-39, -3.40111952873205e-40, 1.913607577688113e-39, -5.692329398407914e-39, 5.745269053091641e-39, 5.062398094546122e-39, 6.541964683297337e-39, 2.235941256944429e-39, 2.682421572349138e-40, -2.3726925727794235e-39, -4.551694869222942e-39], [1.4060656817004501e-39, 5.052796397468568e-39, -9.12564796325322e-40, 2.2002655993411834e-39, 1.3287840713929364e-39, -4.315133267669484e-39, -3.549857551630879e-39, 1.3834963686340346e-39, 6.82143684642535e-39, -2.578771728838424e-39, -3.3180225297975884e-39, 5.978553017537044e-39, -5.56318292933881e-40, 7.225016409344755e-39, -5.4533379453173165e-39, 3.874968604443487e-39], [4.7244035036525115e-39, -1.2516986428704283e-39, -5.191197041596073e-39, -2.5643845975052012e-39, 6.08052830938289e-39, -2.2661798765060942e-39, 5.581705292440256e-39, -2.774852620354467e-39, 1.3273659573470397e-39, 3.0051546216677864e-39, -4.273262469555458e-39, -3.2743552670522984e-39, 4.2237980350632566e-39, 6.974188188126005e-39, -7.454683622453735e-40, 2.38736276640244e-39], [4.919950500453647e-39, -3.835082044954945e-39, 2.838442143367063e-39, -4.1379082482893956e-39, 4.8059744885593235e-39, 6.359456768706744e-39, -3.150387997107339e-39, 1.3188965094286605e-39, 5.270140591882276e-39, 5.8065520388319585e-39, -3.4728912334778385e-39, 4.0687611755672875e-39, -5.690112544237352e-40, 3.600510287220828e-39, -4.070701973940377e-40, 4.669611332398947e-39], [1.6511527831108606e-39, 4.2956804423877267e-41, 1.1820499052980919e-39, 5.897350574126349e-40, 5.425407264326394e-39, 7.203593358422157e-39, 4.936225180818315e-39, 1.8040961027011284e-39, -4.524205597248282e-39, 6.713172527071615e-40, -2.2978506230982994e-39, -2.0421626988052716e-39, -1.1570016952482858e-39, 3.804295517693729e-39, 4.608590389471458e-41, 2.949486638874019e-39], [-3.263758648065074e-39, -3.9916028795246344e-39, -4.453637607883349e-39, -2.911514253087745e-39, -4.388003590411303e-39, -1.8737980896151092e-39, 6.03947586957203e-39, 5.410940258980705e-39, 5.0226418558147624e-39, 2.2485935807788177e-39, 1.830953389068378e-39, -6.830169738455022e-39, -6.71997863371284e-39, -3.377468413251176e-39, 3.345984039354726e-39, -3.070376657391321e-39], [-4.429795915811326e-39, -4.806320609280012e-39, 1.1774354294550702e-39, -2.2194003298715388e-39, 3.314087683709764e-39, 5.760980411473651e-39, -5.951648087022007e-39, 1.1545508242341817e-39, -5.038847872554679e-39, -4.3366894419461925e-39, -6.796951958358202e-39, 5.7311846022267126e-39, 1.967952734731558e-39, 1.9480458887473596e-39, -5.5820191832962645e-39, -4.103241525580464e-39], [1.671547280960644e-39, 1.3933923383890965e-39, -4.225368890641765e-39, 2.9059510981843753e-39, -2.6105503754123823e-39, -5.4071847790963143e-39, -7.427302250460828e-41, -7.258885793227485e-39, 5.420107553534318e-39, 8.120664730608747e-40, -1.493145170870523e-39, 4.7083334128636345e-39, -1.0822746520412362e-39, 5.323140502399969e-40, 8.879411797102063e-40, -3.8298804250553716e-39], [-1.9132880816382468e-39, 3.391458977118995e-39, 5.240538161823414e-39, 8.516041092317995e-40, 4.875490102777549e-39, 3.267256289032029e-39, 2.707008755204181e-39, 3.999294606795313e-39, 8.446508662518197e-40, -3.176293801817312e-39, 1.3333971459374937e-39, 2.5459154837454e-39, -3.7421353191147445e-39, -4.644435604188887e-40, 1.0108855017762084e-39, -4.5075287442243526e-39], [-1.002514144750332e-39, -2.138719169489573e-39, -5.232734330675589e-39, -7.064057662538549e-39, -3.7454185614166576e-39, 2.3062766307642845e-39, -3.4641471310604516e-39, 2.486915213203468e-39, 1.2929991125094736e-39, -3.2456706874875694e-39, -5.708122032100855e-39, 3.024806431331478e-39, 4.9753073949883344e-39, 2.1153076760460984e-39, -3.017738281877423e-39, -5.495290018742273e-40], 